-0.46748620634440435 ,
-0.47008714486033704 ,
-0.46901829521243105 ,
-0.5206573561991197 ,
-0.5009528445671931 ,
-0.48410202678252606 ,
-0.4757023565525331 ,
-0.45247360995540575 ,
-0.37681416421084263 ,
-0.36824210098829946 ,
-0.3679418474727 ,
-0.32115034153287114 ,
-0.2678262490315329 ,
-0.2853716517753301 ,
-0.24475612659956317 ,
-0.19561081248545617 ,
-0.20899537809134375 ,
-0.19764544266534317 ,
-0.16082194564524732 ,
-0.1929929624969738 ,
-0.1368289308029773 ,
-0.15653472181662828 ,
-0.1538028209172706 ,
-0.16547293264333493 ,
-0.16856973305431228 ,
-0.18375632953980103 ,
-0.18811787509206432 ,
-0.20114051931324126 ,
-0.18239621931267092 ,
-0.18366621538394867 ,
-0.20167941496676983 ,
-0.22419407517052048 ,
-0.20403743234158123 ,
-0.20013287777322736 ,
-0.19009686748824423 ,
-0.19188543637902528 ,
-0.18040266215092043 ,
-0.15498721033569585 ,
-0.13686110149440472 ,
-0.12795665897086062 ,
-0.14233164893507538 ,
-0.12271167887632456 ,
-0.12353538001224623 ,
-0.11939575760122284 ,
-0.09570345725689278 ,
-0.09879866381987995 ,
-0.09754181778381138 ,
-0.10466598057345411 ,
-0.1174620372112119 ,
-0.10420735811558868 ,
-0.10531200526464835 ,
-0.11285623471545642 ,
-0.12589309976691093 ,
-0.1457604892557406 ,
-0.12036150652748312 ,
-0.12310366962206032 ,
-0.10647848613208122 ,
-0.08423453942341663 ,
-0.06474997888108469 ,
-0.07109901265822599 ,
-0.06898214656186669 ,
-0.06101450407098341 ,
-0.05645228119324058 ,
-0.053143401042278327 ,
-0.05990682813466652 ,
-0.08625010829090946 ,
-0.11489483486484975 ,
-0.09083799927416403 ,
-0.07900851899915512 ,
-0.039396812479643606 ,
-0.020009679253548518 ,
-0.003701356466132011 ,
-0.01263881240000403 ,
0.026452032689447957 ,
-0.008167255601474244 ,
-0.05177629711604259 ,
-0.03981064906605675 ,
-0.05439845999545895 ,
-0.053049643030376514 ,
-0.04519851957554477 ,
-0.04018627676122133 ,
-0.028162608237594866 ,
0.0068661375914101375 ,
0.01048723585714545 ,
0.03428924231713487 ,
0.08314983176695706 ,
0.06630144663658138 ,
0.07581420000160216 ,
0.11927508842077056 ,
0.1439738222589747 ,
0.15021994504199038 ,
0.12578493443076977 ,
0.0983979327248033 ,
0.09207637558670873 ,
0.09979353017778875 ,
0.14390303881139566 ,
0.15072544587158831 ,
0.1528358930310767 ,
0.13675932576298602 ,
0.15188792761113135 ,
0.14160805998629408 ,
0.18574070199270176 ,
0.20475485948201658 ,
0.2328982831357329 ,
0.2296381646991744 ,
0.20760237493433667 ,
0.2220268674477434 ,
0.21647964271806602 ,
0.2098372055875945 ,
0.1969033372313043 ,
0.21841367988146926 ,
0.19017037605349596 ,
0.24540563802199117 ,
0.24460959282645517 ,
0.2201152439783033 ,
0.1935193522062909 ,
0.1485087360458609 ,
0.12006634516705983 ,
0.0716077905482409 ,
0.046961127576360506 ,
0.021429773406583363 ,
0.0037630229402597637 ,
-0.041082683145713395 ,
-0.08280697467334841 ,
-0.10215574537373029 ,
-0.4848997014873577 ,
-0.4690929319315128 ,
-0.5003415887285949 ,
-0.5319620598918219 ,
-0.5005771902261357 ,
-0.49678898579498204 ,
-0.4910118755756959 ,
-0.46565883205809244 ,
-0.43032964931820195 ,
-0.38132855186644665 ,
-0.33261773098509584 ,
-0.3229012716299686 ,
-0.2834779322527653 ,
-0.26240382276997265 ,
-0.23335150349442302 ,
-0.1788543808358903 ,
-0.15592404105020144 ,
-0.14948963202203436 ,
-0.15701394531473392 ,
-0.16176064262253365 ,
-0.15027489271356695 ,
-0.16617730109192164 ,
-0.17023075774587879 ,
-0.16150581558718627 ,
-0.18299136937376997 ,
-0.20962778943508012 ,
-0.21418254566808614 ,
-0.22151454459872444 ,
-0.20037548281909762 ,
-0.1596085855046186 ,
-0.1560881975711642 ,
-0.18405255525212316 ,
-0.1907905420860136 ,
-0.18038462893505575 ,
-0.1766415742960208 ,
-0.17625541390083055 ,
-0.17487288639183546 ,
-0.11941108888224022 ,
-0.11854709420799286 ,
-0.1010012845951404 ,
-0.10911423482264715 ,
-0.0963052276103526 ,
-0.09109678671700244 ,
-0.08589556203503479 ,
-0.06923010013793462 ,
-0.07831965880457331 ,
-0.08568895704019308 ,
-0.08973839957192548 ,
-0.09776321072954386 ,
-0.09647266466789428 ,
-0.09841031802578193 ,
-0.10602794295695911 ,
-0.12206956442047234 ,
-0.11655245334573239 ,
-0.1080321673762652 ,
-0.11261451079928131 ,
-0.10562136474015948 ,
-0.09126835168497438 ,
-0.06930993385524958 ,
-0.05354133396028665 ,
-0.039928962703523196 ,
-0.02677190810853214 ,
-0.026971970947989643 ,
-0.01687842338082085 ,
-0.026773614226988873 ,
-0.06340903135353065 ,
-0.08537449437128836 ,
-0.09278020567651746 ,
-0.08075520369070982 ,
-0.07402325634795281 ,
-0.0037592071345962097 ,
0.016372725447307945 ,
0.006708764441372861 ,
0.03616437298221403 ,
0.052834865904641204 ,
-0.021152626714098455 ,
-0.043681200986412594 ,
-0.03213069857183948 ,
-0.05545843649037274 ,
-0.05365853027591355 ,
-0.06079662853670159 ,
-0.010479568258110528 ,
0.021677701713929742 ,
0.016464047809836013 ,
0.013575863630077234 ,
0.08390123825574353 ,
0.07800248404758187 ,
0.07095481861989683 ,
0.10426315497257344 ,
0.14543796470130554 ,
0.14138991601601464 ,
0.15869607565647914 ,
0.13099622346910078 ,
0.10980553434097962 ,
0.08627697037202825 ,
0.11791930016485258 ,
0.1394037381178106 ,
0.18086628971045932 ,
0.13572122247244806 ,
0.1482865614064321 ,
0.13511674026656306 ,
0.16388289359057134 ,
0.19828813005034082 ,
0.21748973038349134 ,
0.22509261086967072 ,
0.16776354279573724 ,
0.19389863787613124 ,
0.21845661248248224 ,
0.20887845343325023 ,
0.2036410166066827 ,
0.22941703676796682 ,
0.22913160949219186 ,
0.25057030390421503 ,
0.24697761017963282 ,
0.22667514796957722 ,
0.2083876715214436 ,
0.17620103189867298 ,
0.13952213711550254 ,
0.0987714567915442 ,
0.07424270835133828 ,
0.04624401939218181 ,
0.016305461964700285 ,
-0.019917905647698686 ,
-0.051453169134880516 ,
-0.08306393076368235 ,
-0.46557534776512116 ,
-0.5051959716563992 ,
-0.5151940908212125 ,
-0.5160542965652505 ,
-0.5126804762401441 ,
-0.5035380178367903 ,
-0.47469010785740917 ,
-0.46094611040700395 ,
-0.44236689959800524 ,
-0.38571373683152027 ,
-0.3346163353873459 ,
-0.29882779033229834 ,
-0.27858813934056037 ,
-0.2451137870372169 ,
-0.17927818631280235 ,
-0.15553567124692766 ,
-0.16055605807809295 ,
-0.14300225646308068 ,
-0.14554997770108835 ,
-0.14224403325468976 ,
-0.15245518637924063 ,
-0.1763994226686051 ,
-0.17707098481433353 ,
-0.17283690226410328 ,
-0.18807151367976271 ,
-0.2097708711935095 ,
-0.2329872259175424 ,
-0.19489031642153543 ,
-0.17741090976160517 ,
-0.18078573217339944 ,
-0.18775580758124116 ,
-0.1772678574106284 ,
-0.1609220250645665 ,
-0.15255206575284203 ,
-0.15373344119834126 ,
-0.14814669336069275 ,
-0.13370553712075361 ,
-0.1260094444453151 ,
-0.10020824033051468 ,
-0.09786210713030219 ,
-0.10899829747181516 ,
-0.09037995253890746 ,
-0.07996061845571512 ,
-0.07641071936523447 ,
-0.06629167262324898 ,
-0.06552937961913241 ,
-0.07568620468074694 ,
-0.0814659114642195 ,
-0.08607064317981489 ,
-0.08883244654215328 ,
-0.07071247519499424 ,
-0.08509816586005281 ,
-0.09806190632267597 ,
-0.09806224489117682 ,
-0.08976622328280276 ,
-0.07963429349108869 ,
-0.09074510390223628 ,
-0.08262331424015845 ,
-0.059896323014498876 ,
-0.06406254268165151 ,
-0.04441354760666977 ,
-0.031127973974609424 ,
-0.004337297027571296 ,
-0.0010410042546846188 ,
0.004654640087123185 ,
-0.04464010995742601 ,
-0.05404383316215261 ,
-0.08878068174428799 ,
-0.08184345360520723 ,
-0.07480006621510732 ,
-0.04060180625876697 ,
0.014145971719830841 ,
0.06619149893435411 ,
0.034439828015088325 ,
0.07509348349269468 ,
0.0732143987497802 ,
0.013205998598853297 ,
0.004384764526198015 ,
-0.03503040809488428 ,
-0.04895357576467413 ,
-0.04743242033646422 ,
0.009735955308216304 ,
0.01995596303465652 ,
0.06932225307647144 ,
0.05255053974904539 ,
0.04045151175481859 ,
0.10596475348851858 ,
0.1293470259480593 ,
0.10233012443084666 ,
0.12142079472258016 ,
0.14511349054497003 ,
0.13983240083370757 ,
0.13852891420488894 ,
0.12693779033715563 ,
0.08948602548054857 ,
0.06369955679359934 ,
0.09190643071788984 ,
0.14268686207647835 ,
0.16664651683693993 ,
0.14734255834411056 ,
0.119966965372204 ,
0.1253991157163556 ,
0.17419338315229557 ,
0.20964891015062434 ,
0.1976584492644944 ,
0.20948277734240528 ,
0.16717750062698863 ,
0.14453105194359195 ,
0.17734223904596289 ,
0.21014087435595963 ,
0.2276506697144084 ,
0.2425089626512945 ,
0.25604397554095504 ,
0.24727801685797496 ,
0.23742969828673077 ,
0.2304892782390241 ,
0.19278835414418677 ,
0.16380428547606513 ,
0.12646086656572258 ,
0.07944513590476765 ,
0.07258097061288193 ,
0.03211128350253023 ,
0.009885427466659658 ,
-0.03903819995971958 ,
-0.07819037711775001 ,
-0.4561950856756431 ,
-0.49109565091672264 ,
-0.5050864468995226 ,
-0.5172532309175321 ,
-0.5048432040539695 ,
-0.5173976869800417 ,
-0.45244664633241727 ,
-0.41476476327200873 ,
-0.4009154406028671 ,
-0.38438992873907607 ,
-0.3520923878590632 ,
-0.28939422518599833 ,
-0.2550603055588998 ,
-0.1921828513493743 ,
-0.18112564147693241 ,
-0.17342779822305887 ,
-0.1445797693093246 ,
-0.1392451442770566 ,
-0.15040810126277032 ,
-0.15287368982081104 ,
-0.14872742742021666 ,
-0.19134495554851652 ,
-0.19466372676164612 ,
-0.17952630663195107 ,
-0.1949052574729337 ,
-0.20158796852404942 ,
-0.21180349823796352 ,
-0.1958987076889256 ,
-0.15576921884263834 ,
-0.16328606469922446 ,
-0.15631181257905025 ,
-0.17438543573556342 ,
-0.15821295560125687 ,
-0.13608069266509898 ,
-0.13493830656367756 ,
-0.13841863189145887 ,
-0.12384380420321628 ,
-0.1367825817717357 ,
-0.11533460321758843 ,
-0.11329612780875581 ,
-0.09008612019702622 ,
-0.07732685771079761 ,
-0.06662818528961334 ,
-0.07591077741616814 ,
-0.06863511513182696 ,
-0.06408010640850514 ,
-0.07191139740222885 ,
-0.06966265903336055 ,
-0.08408959649749459 ,
-0.07158151681656388 ,
-0.05710971297019929 ,
-0.05788479868075269 ,
-0.07045896004288366 ,
-0.09323034942618341 ,
-0.08438103939898728 ,
-0.07285591396631336 ,
-0.09328812759840943 ,
-0.07757189993201352 ,
-0.05950181039585206 ,
-0.05276649919525861 ,
-0.06266288441123069 ,
-0.023548901856631554 ,
-0.01164181164724809 ,
0.005564433459458729 ,
0.014615794123332526 ,
0.02885674932605098 ,
-0.009609469386855196 ,
-0.020119015084457237 ,
-0.021869687897347057 ,
-0.04752565786560903 ,
-0.04040355061910239 ,
-0.010373262717917331 ,
0.07269435086017595 ,
0.07125067285441161 ,
0.07533146170518878 ,
0.059958132969692435 ,
0.07406995452736242 ,
-4.1533762259776674E-4 ,
0.03037485182962857 ,
-0.011326833210879905 ,
-0.03176508322794691 ,
-0.006639459826255967 ,
0.03588427004172651 ,
0.08862610353726047 ,
0.1279016459182235 ,
0.10587261563675565 ,
0.1016414142647164 ,
0.14684072540514292 ,
0.14643638112540713 ,
0.12164982053032697 ,
0.10679227955517046 ,
0.11534081316980871 ,
0.1150174858236716 ,
0.13447872920940546 ,
0.13538665349314677 ,
0.1104418365964489 ,
0.07859243633488527 ,
0.097235166374608 ,
0.1489926887059479 ,
0.11117958986868853 ,
0.13389066131162777 ,
0.13177551377697388 ,
0.1446345450687358 ,
0.20004870620206763 ,
0.2061657864624604 ,
0.19077896124897178 ,
0.21821533104551283 ,
0.1307841673798434 ,
0.13072263557617336 ,
0.20683765114248878 ,
0.2576217651423631 ,
0.2491529655308046 ,
0.24167753765081004 ,
0.25883137848550447 ,
0.27032974506137397 ,
0.25001833989555505 ,
0.20453308081577687 ,
0.1666052922761005 ,
0.15711979537075743 ,
0.12484776733394937 ,
0.09201578145413575 ,
0.053746341658011065 ,
0.015027991362689286 ,
-0.019212139032741105 ,
-0.05669426594587179 ,
-0.45683897590544925 ,
-0.5093443707400866 ,
-0.49645132797147207 ,
-0.49310764209242686 ,
-0.46697269835728494 ,
-0.46265820198792085 ,
-0.4739554667987699 ,
-0.395131741765151 ,
-0.36000914293835634 ,
-0.32927206130807607 ,
-0.32972413289153835 ,
-0.26307993374599414 ,
-0.21014465198083587 ,
-0.16392101237328285 ,
-0.1709503212552363 ,
-0.15587621462229692 ,
-0.13930802141602847 ,
-0.1336933556099851 ,
-0.13765600724163465 ,
-0.11934917353049163 ,
-0.1391213723747079 ,
-0.15313156119284854 ,
-0.19157962059941647 ,
-0.21344796076971684 ,
-0.19946275218887988 ,
-0.18903119937340357 ,
-0.21819418131467816 ,
-0.20618918225896005 ,
-0.16711669957947817 ,
-0.18061808355211523 ,
-0.1624249409577303 ,
-0.14952073341778982 ,
-0.15093601142436164 ,
-0.12984716161413717 ,
-0.12023756612646819 ,
-0.12698032958683536 ,
-0.11570645866338791 ,
-0.1272450510082011 ,
-0.10537147635986327 ,
-0.08308456930537145 ,
-0.08905655738061624 ,
-0.07614635904787903 ,
-0.07063346964979045 ,
-0.0911043942005012 ,
-0.06586213196113688 ,
-0.07080189644535417 ,
-0.06925300823451319 ,
-0.06581465420887778 ,
-0.055824187986368234 ,
-0.05242036798220151 ,
-0.04767450312738275 ,
-0.06071129790631258 ,
-0.05048065410089908 ,
-0.06314538170884265 ,
-0.06679133314418206 ,
-0.07165072520772159 ,
-0.06944515102048376 ,
-0.050293921242799355 ,
-0.04732865191226843 ,
-0.03734921053975615 ,
-0.030775407481314354 ,
-0.016740810336565493 ,
-0.015910615105230896 ,
0.013083946307513306 ,
0.010582579506508982 ,
0.05186033551397651 ,
0.029097602264385958 ,
0.01921075184107368 ,
0.01241499666869611 ,
0.0026375535851727583 ,
-0.007330788857332293 ,
-0.012680424376237287 ,
0.027330197601551642 ,
0.10631661211180832 ,
0.08790636066067253 ,
0.09339157916319502 ,
0.07821964319624392 ,
0.06844040244558303 ,
0.06633258449213497 ,
0.0644652745521167 ,
0.05988351490900312 ,
0.01393479751705029 ,
0.02445173997210337 ,
0.06268457986420983 ,
0.10966296691235239 ,
0.12716871268994673 ,
0.10410158088994498 ,
0.13086833281205867 ,
0.13035546828514388 ,
0.13269707124107372 ,
0.12963127259150725 ,
0.15058806526442592 ,
0.1628861404391057 ,
0.13701817921208836 ,
0.12675692867548616 ,
0.12508894359187422 ,
0.09483943600755407 ,
0.06286692341818872 ,
0.060999961831560756 ,
0.07588026087226735 ,
0.12691817312846543 ,
0.15046980020865983 ,
0.1360716529620963 ,
0.1420731430974242 ,
0.20986723423081718 ,
0.19107090969550414 ,
0.21461841299966353 ,
0.19247786406808018 ,
0.14956331472838652 ,
0.19628028047945775 ,
0.29424609391802514 ,
0.2537119236248745 ,
0.23678457711510434 ,
0.23355572978297723 ,
0.24226757819222916 ,
0.23536487605579337 ,
0.20821120283800149 ,
0.18539232352092477 ,
0.1598569646210925 ,
0.1199344929135221 ,
0.11575934194577564 ,
0.08383272657017499 ,
0.03799178678994408 ,
0.002782092061290875 ,
-0.03315621860839968 ,
-0.47363491645050926 ,
-0.5409078939639079 ,
-0.5607352193812803 ,
-0.5323950096069034 ,
-0.48810590838659473 ,
-0.4371871709400402 ,
-0.40800344297682284 ,
-0.3837258799982797 ,
-0.33432814204227246 ,
-0.2824899838517334 ,
-0.27707184745486524 ,
-0.26479254934036717 ,
-0.21633158322366358 ,
-0.19474694108104004 ,
-0.16478964126945772 ,
-0.12469004725027275 ,
-0.11377552951229797 ,
-0.11942921858701291 ,
-0.11959131013053914 ,
-0.11701001408053491 ,
-0.12470632622781236 ,
-0.15682869730817472 ,
-0.18758408456100195 ,
-0.18709405851615118 ,
-0.20243814645559915 ,
-0.21472713261571974 ,
-0.2030630628023427 ,
-0.17651398466097662 ,
-0.19133992577607917 ,
-0.1851470827204087 ,
-0.14181244266543686 ,
-0.16720512067570908 ,
-0.1453232187213147 ,
-0.13685823975767003 ,
-0.11607267171237245 ,
-0.11787146802501425 ,
-0.11739406512292022 ,
-0.13336808549173768 ,
-0.10752481420989735 ,
-0.09012105458206365 ,
-0.08148770336950062 ,
-0.07258115062722015 ,
-0.05679660376013762 ,
-0.06188013755363431 ,
-0.058481301801493135 ,
-0.05903560482225223 ,
-0.04477708348985565 ,
-0.04801983331037096 ,
-0.03864740075831363 ,
-0.05568734074649262 ,
-0.05454642272126964 ,
-0.04862417915373185 ,
-0.06051002966846608 ,
-0.047152139703510176 ,
-0.038193604207513054 ,
-0.05313902794986791 ,
-0.04852686687392682 ,
-0.04030550598339744 ,
-0.04590532998003649 ,
-0.03418343504952903 ,
-0.048447116812328106 ,
-0.03500684274114074 ,
-0.0027426237192385017 ,
0.02422249457288128 ,
0.03385790638011843 ,
0.05227959276956762 ,
0.04739363524011325 ,
0.045931174031277056 ,
0.026891706513656466 ,
0.01806083938987213 ,
0.018600652648326943 ,
0.019007753807546157 ,
0.0395666213334796 ,
0.10386003409468936 ,
0.12496920723354571 ,
0.11580573797221988 ,
0.09449598674843024 ,
0.08683931698436792 ,
0.0761987301049245 ,
0.06795071988059248 ,
0.0853822204068086 ,
0.06714627602891843 ,
0.02688148022298148 ,
0.06653762153485959 ,
0.10565746216012634 ,
0.16311791404577963 ,
0.14539829148827144 ,
0.12290998881366316 ,
0.15787957072916253 ,
0.13226734999339484 ,
0.15786012969006613 ,
0.14007955952800483 ,
0.14880030988327864 ,
0.12502725789612396 ,
0.10533320870784862 ,
0.10672453247312602 ,
0.0840808150022142 ,
0.08209525530975426 ,
0.07713282482619488 ,
0.041339474921901875 ,
0.07191219393586151 ,
0.09738548245834208 ,
0.12144163102202543 ,
0.1406861792485678 ,
0.15917973731411222 ,
0.20760599067774502 ,
0.21543837009043573 ,
0.21995322935354653 ,
0.17896705517767672 ,
0.13712135894371494 ,
0.2487028857192772 ,
0.2711995186741676 ,
0.2526965897814458 ,
0.27117825923830513 ,
0.2553404675388698 ,
0.2346935468903969 ,
0.22524842441339182 ,
0.19435853483589538 ,
0.1514808612357763 ,
0.14053202229498674 ,
0.11380783862832039 ,
0.07549204856559888 ,
0.061258497281358126 ,
0.024034819023643572 ,
-0.010287016976480268 ,
-0.5072987725748751 ,
-0.5907533091622234 ,
-0.5795065116344836 ,
-0.5542850649873327 ,
-0.5286110232646937 ,
-0.4759327608220256 ,
-0.41914535703154676 ,
-0.35871627919947013 ,
-0.31943939299095303 ,
-0.2789097287064014 ,
-0.21725007897723148 ,
-0.2020556760097106 ,
-0.1715674025303572 ,
-0.1722066396532237 ,
-0.15178677620108283 ,
-0.14436154813928218 ,
-0.11367609464839376 ,
-0.09668284055242082 ,
-0.09738522125324506 ,
-0.10036481158799565 ,
-0.12805551867867726 ,
-0.16378289646100364 ,
-0.18724003204244244 ,
-0.16855100494376457 ,
-0.1839092100969269 ,
-0.19168663062067548 ,
-0.1965930722327512 ,
-0.19062823341501545 ,
-0.20084005452035902 ,
-0.1907599759178945 ,
-0.147117685750688 ,
-0.1726535375012122 ,
-0.14892946839174803 ,
-0.13832189304055165 ,
-0.1300847726009876 ,
-0.11613227855630731 ,
-0.10770367914548706 ,
-0.10517539549346422 ,
-0.10089695564381707 ,
-0.09414840689884485 ,
-0.08849231043415118 ,
-0.07577967156260879 ,
-0.05445715629506842 ,
-0.06533162931937231 ,
-0.07440204479860302 ,
-0.05492540414748637 ,
-0.033393909705017655 ,
-0.03715670434936447 ,
-0.04470812581161676 ,
-0.03484991925769498 ,
-0.031906394428948825 ,
-0.028579711699494803 ,
-0.04162019234254699 ,
-0.03955239005164224 ,
-0.04921465160529537 ,
-0.03959699831936436 ,
-0.04289934330889489 ,
-0.026029434270723018 ,
-0.03684447286937076 ,
-0.0449143614280032 ,
-0.017554604851803046 ,
-0.017866244097181516 ,
0.006629050184609575 ,
0.03270859469785076 ,
0.03788450211232819 ,
0.04989433460682935 ,
0.05382450164285868 ,
0.07613138365270233 ,
0.056847854356087635 ,
0.03905095448887885 ,
0.04193203947343305 ,
0.04654921034822945 ,
0.05016402559734251 ,
0.09218528203739573 ,
0.12104426515844724 ,
0.09878662641488933 ,
0.09747638376177126 ,
0.10838236823676878 ,
0.108403949123476 ,
0.08405205793012072 ,
0.07853373229464633 ,
0.1035162750851853 ,
0.07340566957668293 ,
0.029963321119897857 ,
0.0857598205696688 ,
0.1512303293492906 ,
0.17432279179410998 ,
0.15748458670847204 ,
0.16919956647231194 ,
0.15798433733302353 ,
0.14894301056819925 ,
0.16303367974825972 ,
0.13184393774574593 ,
0.11547431143295595 ,
0.08393088744348909 ,
0.06848620929516336 ,
0.0763669462856344 ,
0.08276403955720452 ,
0.07381464138186833 ,
0.07909172891109073 ,
0.05727471685544555 ,
0.06009449277908813 ,
0.10601388832181391 ,
0.12317806856233873 ,
0.1640870179573993 ,
0.20747442705303823 ,
0.19528466897889654 ,
0.2313502335908462 ,
0.225666443591951 ,
0.16219657849531652 ,
0.2032131561177697 ,
0.2695786743912658 ,
0.2861575227883293 ,
0.27840196034548015 ,
0.2644313654682307 ,
0.23978567748181157 ,
0.2387785641302264 ,
0.20738441449735862 ,
0.18507856630549852 ,
0.1461527026314527 ,
0.1247359259556951 ,
0.09610935136797277 ,
0.0756342179961218 ,
0.027757140421092563 ,
-4.517210978570718E-4 ,
-0.5178118337725331 ,
-0.5593826888215467 ,
-0.5539298813527347 ,
-0.5318599678492384 ,
-0.5138078808208759 ,
-0.4741861092490913 ,
-0.4183888211947366 ,
-0.3508082652827875 ,
-0.31386296446823403 ,
-0.28567483493098034 ,
-0.22488722831588864 ,
-0.2035627535277423 ,
-0.15565728098333004 ,
-0.14777431065213556 ,
-0.13403177025589902 ,
-0.13566704973336582 ,
-0.10328383698253071 ,
-0.0942886725198741 ,
-0.10396865891584828 ,
-0.11727436452124557 ,
-0.146275604714788 ,
-0.16440535870328843 ,
-0.16930998710930228 ,
-0.18741905060119607 ,
-0.18137778389608328 ,
-0.18975734324538152 ,
-0.19735218954195022 ,
-0.19940523459129872 ,
-0.19195818748391974 ,
-0.19085391978525046 ,
-0.17525963755207463 ,
-0.1690250100602781 ,
-0.15571330117230525 ,
-0.1426090057131177 ,
-0.11834289277834575 ,
-0.09595091518708021 ,
-0.11796683952654885 ,
-0.09569960408970724 ,
-0.0995075895066786 ,
-0.08463988481094442 ,
-0.08202578824890894 ,
-0.08212476179026851 ,
-0.06879230888189769 ,
-0.06397416173770043 ,
-0.058606560283048115 ,
-0.04503542699505747 ,
-0.036514160919867145 ,
-0.041312698263330505 ,
-0.04390028307235394 ,
-0.025694356890182846 ,
-0.018990517394149253 ,
-0.018332391645281776 ,
-0.04366181902112709 ,
-0.03550130563092302 ,
-0.03340971638172019 ,
-0.025456435357148588 ,
-0.010345034619424043 ,
-0.008546044254768792 ,
-0.015659307844185677 ,
-0.02845034059560747 ,
-0.015805067153024877 ,
-0.005038777234689373 ,
-0.0015682799734328956 ,
0.031826590980502445 ,
0.03743177790834107 ,
0.04864781123541312 ,
0.07907632735242676 ,
0.07967294187283797 ,
0.09357272328554295 ,
0.07319670067215273 ,
0.05793792854490948 ,
0.05438039383757248 ,
0.0633750513627096 ,
0.08385919584996254 ,
0.12500331759843253 ,
0.13832110166080303 ,
0.11068184886977245 ,
0.13674622568357242 ,
0.14074790304625945 ,
0.13879499585972843 ,
0.11977785100951732 ,
0.11597383239761422 ,
0.12279147701406545 ,
0.08033923460976455 ,
0.070947763281284 ,
0.13283448301186812 ,
0.17461740974180773 ,
0.15999713832392942 ,
0.172966028479 ,
0.16489352197415136 ,
0.17337227163938657 ,
0.1629432185497754 ,
0.13494311206477422 ,
0.1165617858637637 ,
0.09934993993502855 ,
0.06347540828721832 ,
0.04342485434435456 ,
0.06894920530525456 ,
0.065020203946964 ,
0.06028957083241837 ,
0.04746088866723286 ,
0.0652112392955243 ,
0.07254664232636793 ,
0.14672975376672745 ,
0.15378672265370102 ,
0.20011360705163134 ,
0.20904018294262022 ,
0.22532755144595126 ,
0.2558727312497873 ,
0.23169493539586503 ,
0.2119892574232177 ,
0.27757633221126066 ,
0.28430511406809933 ,
0.2827860246648245 ,
0.2792438552667962 ,
0.25244678262554165 ,
0.23126200280989911 ,
0.21852016746634312 ,
0.19700060476571807 ,
0.16711332618433555 ,
0.14271394145655641 ,
0.12195522016057325 ,
0.07357777521166137 ,
0.03056072290645029 ,
0.020756699339142037 ,
-0.519426844073267 ,
-0.5505213956774366 ,
-0.5504259931966764 ,
-0.5348124258492383 ,
-0.49662417717958834 ,
-0.44173470610272003 ,
-0.3877830832876497 ,
-0.34692172246597164 ,
-0.2806642788290324 ,
-0.22530474573704473 ,
-0.2329648857881394 ,
-0.18637159603053494 ,
-0.16607067504998674 ,
-0.13664090662049613 ,
-0.09978629180429119 ,
-0.07210276751457606 ,
-0.07567411057134382 ,
-0.07423323449829244 ,
-0.10751980542033535 ,
-0.15255872701260487 ,
-0.1650664228157928 ,
-0.1607682181591742 ,
-0.17467617156087695 ,
-0.19740573070062767 ,
-0.191395429465248 ,
-0.18868051719116352 ,
-0.20981409212945856 ,
-0.17639390563337703 ,
-0.18012605710198432 ,
-0.18936922550507224 ,
-0.1554805423484314 ,
-0.1471092693117314 ,
-0.14066185617736043 ,
-0.11817043744741107 ,
-0.11447837200292876 ,
-0.10791943140994964 ,
-0.10361808648231108 ,
-0.09841497953958567 ,
-0.09589135524806025 ,
-0.09036901703650602 ,
-0.07055580246375726 ,
-0.07542591909906138 ,
-0.06004357618432432 ,
-0.04514684900700783 ,
-0.03420532521729569 ,
-0.040568393550403425 ,
-0.03632167376479445 ,
-0.032024396966660484 ,
-0.023626688006169183 ,
-0.0053683274215418075 ,
0.0031084303104333966 ,
-0.0014917546725666808 ,
-0.006824691826392337 ,
-0.013568541512935517 ,
-0.019364694858351572 ,
-0.016261064797990832 ,
-0.015634626882988112 ,
0.004442696109720923 ,
0.00587372351865334 ,
-0.0014001717852532014 ,
0.0023283792915759216 ,
0.0120483301876958 ,
0.017782998828295704 ,
0.03375866053924681 ,
0.04979063524426497 ,
0.06835455844262872 ,
0.0694398021079396 ,
0.07296429364025897 ,
0.10025622833532344 ,
0.11287046216155222 ,
0.07454086377705693 ,
0.08541948356213619 ,
0.07813388193586551 ,
0.07982026931772562 ,
0.1330965195595631 ,
0.15785295325869553 ,
0.14465863515793648 ,
0.13363552574053617 ,
0.1537063902553647 ,
0.16264223914815357 ,
0.14072510415585043 ,
0.1289539311637941 ,
0.1353224438289372 ,
0.12173189078327568 ,
0.10258598533889701 ,
0.10860138921869555 ,
0.17649122840626602 ,
0.1872649068387951 ,
0.18927143253986828 ,
0.1789178150009127 ,
0.1914215209539592 ,
0.17045734576838567 ,
0.14855964489285584 ,
0.1291649165019021 ,
0.11147597566427597 ,
0.0707271362202675 ,
0.025598761399262482 ,
0.025759672612144846 ,
0.007203125767195506 ,
0.020260356091363618 ,
0.060939953520181944 ,
0.06625487348306963 ,
0.04958798015250687 ,
0.09085562422322369 ,
0.14313569284976002 ,
0.18735978861231758 ,
0.22322794049569483 ,
0.21825993147810047 ,
0.23980167073567396 ,
0.27269055046005086 ,
0.23067837394718285 ,
0.23025884042880043 ,
0.2929340775596395 ,
0.2841365658381616 ,
0.2963269240204704 ,
0.2862712072042139 ,
0.24967853571276188 ,
0.20709095927660331 ,
0.21730132249421646 ,
0.1860742164613836 ,
0.14602480106368276 ,
0.1214154291117388 ,
0.08922799186801905 ,
0.07572050844933587 ,
0.04369161272629263 ,
-0.48408509435432895 ,
-0.5510791194805817 ,
-0.5530655416135511 ,
-0.5270553294683554 ,
-0.46429576410177653 ,
-0.4159854263381155 ,
-0.38077545186745687 ,
-0.32267387526064434 ,
-0.27918841643072784 ,
-0.19864993890807184 ,
-0.16684739542788599 ,
-0.18235120933123664 ,
-0.1670103709543314 ,
-0.12641936118089447 ,
-0.10447190022550099 ,
-0.05034747447002674 ,
-0.07026917338692867 ,
-0.0766664419276834 ,
-0.11101354244451289 ,
-0.15148054304791625 ,
-0.15422679659174443 ,
-0.1787369318274415 ,
-0.18543804796770824 ,
-0.19249136897961866 ,
-0.18878562052097614 ,
-0.1768911694126467 ,
-0.19930266354231058 ,
-0.16915522681686335 ,
-0.1949178011674661 ,
-0.17357559120245264 ,
-0.14910818647026214 ,
-0.15872797042050557 ,
-0.14418194422304287 ,
-0.1337444490562853 ,
-0.1316355048357003 ,
-0.10590974043467227 ,
-0.0994714367550178 ,
-0.0917228725975463 ,
-0.08933799154511968 ,
-0.07810379889622543 ,
-0.056118910356911855 ,
-0.061260046864017315 ,
-0.03426191120322086 ,
-0.03313452718442811 ,
-0.011726671006470513 ,
-0.026199050247271982 ,
-0.024609847771201676 ,
-0.02565883694857707 ,
-0.015257744608018098 ,
0.009944737074276455 ,
0.022730813680497675 ,
0.020631401237833247 ,
-0.0047395690678999625 ,
0.0121897608070064 ,
-0.008298135219941494 ,
0.009684536840191993 ,
0.008723680057480698 ,
0.00876485750538436 ,
0.030753359899045263 ,
0.030095975751127213 ,
0.004363691574785444 ,
0.015958406910600242 ,
0.024828272768544934 ,
0.04320624101577253 ,
0.05166385733511425 ,
0.06795884544904851 ,
0.07309388485428325 ,
0.09442029490402282 ,
0.10703963284305745 ,
0.12272537036999254 ,
0.09043849977747798 ,
0.10763505692423053 ,
0.10312231066804939 ,
0.07845212343087449 ,
0.11118827515828561 ,
0.1534054663066583 ,
0.14816301847887664 ,
0.1455434143514635 ,
0.14455924761670125 ,
0.1733691423360873 ,
0.17783683174110848 ,
0.14970738547491064 ,
0.1390115252323143 ,
0.15829841558952235 ,
0.12795104272195706 ,
0.12971735788647598 ,
0.1570113790480751 ,
0.2025024596398718 ,
0.18040098297621254 ,
0.1963249243340292 ,
0.17626524569067142 ,
0.16872183913622368 ,
0.16783159774919304 ,
0.127356797553131 ,
0.07930014653774092 ,
0.07977987635492251 ,
0.03691980811940648 ,
0.002049875624784425 ,
-0.02232130193997922 ,
-0.0014639486837269011 ,
0.035162256462739905 ,
0.06821521161516259 ,
0.05325763308732806 ,
0.09452702830937859 ,
0.13598288348366694 ,
0.12702675487834902 ,
0.18320071957007017 ,
0.19965948583719906 ,
0.214509429273097 ,
0.26765341611432814 ,
0.27411379286179205 ,
0.23494113461147118 ,
0.2772516826039945 ,
0.2943258461467374 ,
0.28091805896359784 ,
0.28675986771735484 ,
0.25839510590687337 ,
0.22530873640370797 ,
0.22502212014073708 ,
0.19545594145036027 ,
0.1634325355915851 ,
0.1602206111592664 ,
0.11668354240690088 ,
0.07872995383643955 ,
0.0484377416543017 ,
-0.4897381905779553 ,
-0.523052913700564 ,
-0.5341527100691219 ,
-0.5064077425887797 ,
-0.4375206905903505 ,
-0.38084856490910707 ,
-0.3360842411984142 ,
-0.3057951395609897 ,
-0.29462146561700486 ,
-0.19746647417484028 ,
-0.16747779274819433 ,
-0.14945134693443823 ,
-0.1419515959715194 ,
-0.08751648501195675 ,
-0.06732626827341287 ,
-0.054827730310658296 ,
-0.02749726734033775 ,
-0.06264426121303968 ,
-0.10631734369333651 ,
-0.16066232875159087 ,
-0.14487916621848557 ,
-0.17404094353277277 ,
-0.18206102420955517 ,
-0.17183998105711878 ,
-0.18485560708943855 ,
-0.19351257717138687 ,
-0.18340503089080878 ,
-0.17196054428109647 ,
-0.17242363707597236 ,
-0.17262082808861567 ,
-0.1586907706997014 ,
-0.14921474692634812 ,
-0.13763951747934416 ,
-0.13867109944561795 ,
-0.11079105313681226 ,
-0.09299742751379647 ,
-0.10022660215709112 ,
-0.07285123277070515 ,
-0.08053288780720502 ,
-0.05748336064701165 ,
-0.04534805034167255 ,
-0.044339732796110254 ,
-0.04204145100170309 ,
-0.026413229971358643 ,
-0.01910323644410794 ,
-0.029233878443784 ,
-0.008303740385407599 ,
-0.001199081480087294 ,
0.013950274753744885 ,
0.018165605347649105 ,
0.04385920939837329 ,
0.048175051572677985 ,
0.022247432405417822 ,
0.03354613718134336 ,
0.028384813275644682 ,
0.021202387967338532 ,
0.011917822276163115 ,
0.022827086342321445 ,
0.03576313112378193 ,
0.04160932702635012 ,
0.02878791965569627 ,
0.03174769807890654 ,
0.042148376709049584 ,
0.04000624782730122 ,
0.04489308006286952 ,
0.061487443646725204 ,
0.07248462855320392 ,
0.10082837029771013 ,
0.11057687473547939 ,
0.12090364217512456 ,
0.12011835368810037 ,
0.10514206083756333 ,
0.11004577186041942 ,
0.10554813327367535 ,
0.10716231048548341 ,
0.1432702204858941 ,
0.1608869040524722 ,
0.1550642199441583 ,
0.14481679280473414 ,
0.15246802468543091 ,
0.17829037093451455 ,
0.19503104905767843 ,
0.17929007015574122 ,
0.1775602296298776 ,
0.16883718433279926 ,
0.18706758196114792 ,
0.14981668043685387 ,
0.1909367111302771 ,
0.19152263672063374 ,
0.18728760895382085 ,
0.18895891859016806 ,
0.15042329985667208 ,
0.17014655406396173 ,
0.1694453919027623 ,
0.12260933653695266 ,
0.08042392176976987 ,
0.04397012026437258 ,
0.009776655586180516 ,
-0.038512116741137914 ,
-1.5391235086370525E-4 ,
0.004099376407639466 ,
0.01658668002187469 ,
0.05752440362580458 ,
0.0686484538419222 ,
0.10136857662326398 ,
0.13159991455839026 ,
0.16529286698772305 ,
0.18878390241570087 ,
0.23727863206400113 ,
0.24512210273469412 ,
0.30573424703958946 ,
0.2681254210037384 ,
0.2376565583925424 ,
0.30407152262869774 ,
0.2871409551309161 ,
0.2848153537354093 ,
0.2705338057914142 ,
0.24643501428739306 ,
0.226755938321549 ,
0.21338320208211997 ,
0.1904258651211761 ,
0.1661881963961851 ,
0.13908045316853435 ,
0.09842371953307416 ,
0.05036149299350601 ,
-0.5147390374272847 ,
-0.4963757942840975 ,
-0.5038881772155773 ,
-0.5097662182596292 ,
-0.4549184919533782 ,
-0.3560068504021928 ,
-0.2876457276933544 ,
-0.256883570205017 ,
-0.22848604331369543 ,
-0.18125088994107394 ,
-0.16535928284149035 ,
-0.12477859743697206 ,
-0.08905676326127862 ,
-0.05044756105029374 ,
-0.029997866214313273 ,
-0.04997495659928214 ,
-0.039731255384280684 ,
-0.08694751595324329 ,
-0.13760606490641503 ,
-0.18237382671019187 ,
-0.15483634560619247 ,
-0.16450142670929785 ,
-0.19373721840286573 ,
-0.17826219368225688 ,
-0.18802575622470474 ,
-0.1846949522865035 ,
-0.1959814196664082 ,
-0.18353248926432997 ,
-0.16228106130814662 ,
-0.18071524115973353 ,
-0.16743114417130572 ,
-0.13770441336114264 ,
-0.12585166731144015 ,
-0.1211414034786561 ,
-0.10132995879883644 ,
-0.09957671248393896 ,
-0.0846963721571048 ,
-0.0750521796704059 ,
-0.06396508434418147 ,
-0.04163723331480751 ,
-0.0318298444921693 ,
-0.023574701115848806 ,
-0.022438862402378912 ,
-0.01955277185301285 ,
-0.027265191248429965 ,
-0.01619576424495306 ,
0.015105418580077634 ,
0.010215423769672216 ,
0.02903000622969043 ,
0.045918412604340264 ,
0.0452879682166305 ,
0.04871342798302469 ,
0.04527965106658538 ,
0.04751496178087611 ,
0.039685816737435875 ,
0.03667611855926323 ,
0.01904804309302388 ,
0.0401370443015564 ,
0.04670481059484033 ,
0.04332561170501692 ,
0.0234917167006633 ,
0.046879261121098637 ,
0.05113584738470722 ,
0.051751421952691556 ,
0.06450944565467309 ,
0.08509114025750164 ,
0.08888431405650699 ,
0.08998455906219105 ,
0.10051775963288795 ,
0.10902917412090418 ,
0.11740009995227002 ,
0.11918478416652745 ,
0.09371912289196926 ,
0.1330793226865592 ,
0.11316773660448876 ,
0.1435198143688035 ,
0.15521062528457036 ,
0.17388796381759702 ,
0.16905854380084379 ,
0.16579513686141634 ,
0.21395818762703506 ,
0.23468308564547063 ,
0.21846937604169203 ,
0.18220428780693082 ,
0.18304021585942837 ,
0.1890798176939894 ,
0.17481979470414327 ,
0.17191543272620258 ,
0.18995658519438752 ,
0.16804147267287017 ,
0.19295046963929557 ,
0.17925757379160162 ,
0.16765669402899236 ,
0.15957849329505147 ,
0.13108167040667906 ,
0.09183667464984951 ,
0.05856862460869422 ,
0.02529799949686251 ,
-0.02471242275695723 ,
-0.010031945951906096 ,
0.0111783499914761 ,
0.03275651808754082 ,
0.04763794290164425 ,
0.06620559843877255 ,
0.05896494029344479 ,
0.11001220965106923 ,
0.15279892996741462 ,
0.18081849401323075 ,
0.22709075190177555 ,
0.264796155425854 ,
0.3035523632832414 ,
0.27140527530294883 ,
0.28492105015427877 ,
0.27960545156628747 ,
0.28605075398190993 ,
0.28975536412946706 ,
0.2725923604170133 ,
0.24981368364229606 ,
0.25315615776860745 ,
0.237839865882427 ,
0.20640221986436785 ,
0.18264828131954752 ,
0.14733191385101513 ,
0.09832237323598514 ,
0.05263578620505527 ,
-0.5436591255142705 ,
-0.5179378175803799 ,
-0.48829274223658914 ,
-0.4583042674815195 ,
-0.4076723795036403 ,
-0.35431430176982487 ,
-0.2608438807500386 ,
-0.20474744573045617 ,
-0.17492657431680303 ,
-0.16028873421947992 ,
-0.12849436248908516 ,
-0.0842849610342763 ,
-0.05197025987200787 ,
-0.02391916954901263 ,
-0.011156338070435812 ,
-0.04295908224942652 ,
-0.054860887612109444 ,
-0.1060541098265354 ,
-0.14962228373189684 ,
-0.169053297799648 ,
-0.15655885226442728 ,
-0.16796619174788918 ,
-0.19733662668837665 ,
-0.18106284717901666 ,
-0.1761849392638164 ,
-0.1891065140063551 ,
-0.19921208512900607 ,
-0.17451782292625828 ,
-0.17223750908399288 ,
-0.16075651738397423 ,
-0.13822547177369432 ,
-0.12956455551951807 ,
-0.11830273435592531 ,
-0.11645957252854311 ,
-0.09736929546003004 ,
-0.0986921307875066 ,
-0.07554171652807928 ,
-0.06335927467261693 ,
-0.04783091483603985 ,
-0.03275923114687995 ,
-0.03162366614839085 ,
-0.013230991071578768 ,
-0.011457264289930658 ,
-0.006033833131544153 ,
-0.01021822362912228 ,
0.009656917827262523 ,
0.021590272604229743 ,
0.03024335894283592 ,
0.045135842417332595 ,
0.043809643413493915 ,
0.056170402298372224 ,
0.07033199157550263 ,
0.05474536515568762 ,
0.053562755424735875 ,
0.04581034924466387 ,
0.06478433856191679 ,
0.05629429384341911 ,
0.06672994233734608 ,
0.07220409769766623 ,
0.056767915120046086 ,
0.06698826704029637 ,
0.05942652497987411 ,
0.06617161240137726 ,
0.06240898196456679 ,
0.07324123222424284 ,
0.08988446860867716 ,
0.09387893327889185 ,
0.09776675102899068 ,
0.11980302970796775 ,
0.12216333720041145 ,
0.14288252111695204 ,
0.13907192999338108 ,
0.1326174387453874 ,
0.1301314780248506 ,
0.128514339140827 ,
0.15003293849320337 ,
0.15703413819958617 ,
0.18461589118179206 ,
0.1795331674419427 ,
0.17909940002100133 ,
0.20461543303037805 ,
0.25567565022577604 ,
0.24915901039782135 ,
0.22602790975212972 ,
0.2356242163982999 ,
0.22231600500708903 ,
0.17608365246361313 ,
0.17263058211507148 ,
0.18842093996649323 ,
0.20016615359719186 ,
0.1890103200337409 ,
0.19885456411592256 ,
0.18595736946453162 ,
0.16945297766757916 ,
0.1541132886498478 ,
0.12452863009590004 ,
0.048880383918058934 ,
0.025457192986953647 ,
0.015378948238613244 ,
-0.023652975150908473 ,
-2.801443881672028E-4 ,
-0.00479062565694971 ,
0.051520294203562855 ,
0.06554298170759892 ,
0.07193038312160371 ,
0.0986823597831804 ,
0.1384698022740008 ,
0.1772131333591322 ,
0.2209419156880544 ,
0.2622685311201662 ,
0.30272233645629626 ,
0.3083759355021958 ,
0.2914077908952467 ,
0.3112197447700386 ,
0.2647171576143957 ,
0.27582367280537373 ,
0.2728498156775383 ,
0.25851532943647404 ,
0.25180798204382315 ,
0.24667597759671045 ,
0.22010913873726184 ,
0.18888038826112485 ,
0.1491843635793123 ,
0.10792425910576886 ,
0.05820172185961103 ,
-0.5345967722927188 ,
-0.5155578798038787 ,
-0.4642200481203562 ,
-0.41422669033570464 ,
-0.3467954534719426 ,
-0.2824918689735827 ,
-0.23638405481607264 ,
-0.19286683346948552 ,
-0.1609247394670206 ,
-0.1579674375981471 ,
-0.10766547492905329 ,
-0.04099061863614628 ,
-0.016709994767560465 ,
-0.01999379469789797 ,
-0.03857579962887442 ,
-0.04330147847283816 ,
-0.08981245647642722 ,
-0.12553791253362417 ,
-0.15648059735513847 ,
-0.17265853894206007 ,
-0.17839974249511192 ,
-0.19083487393628912 ,
-0.18733042065916822 ,
-0.16722690195130774 ,
-0.18388617103872495 ,
-0.1937588798041639 ,
-0.1837168038631531 ,
-0.1816876734256736 ,
-0.16958055929044813 ,
-0.16137751602155942 ,
-0.1604824841685648 ,
-0.1420551930551326 ,
-0.10714567240621897 ,
-0.11363014448388187 ,
-0.08285986460946237 ,
-0.07446097995516532 ,
-0.07150869793893055 ,
-0.06749780530178595 ,
-0.03828351914118844 ,
-0.020289526543038172 ,
-0.014274143739037903 ,
-0.01230204522944578 ,
0.0038496572409196794 ,
0.0027455808857606012 ,
0.018906694983937156 ,
0.022425032458425087 ,
0.03895422568375706 ,
0.04599452120384517 ,
0.047428531209862235 ,
0.06918586221517864 ,
0.08247021869723925 ,
0.09598040513213368 ,
0.08469494387453591 ,
0.07678064572028032 ,
0.07745134978674184 ,
0.07351327766423021 ,
0.09242697188431925 ,
0.09003339445435643 ,
0.08522980325248619 ,
0.0654492703437155 ,
0.08616233736586043 ,
0.06857887540862773 ,
0.07020327639495838 ,
0.06987999305358583 ,
0.08109917259658739 ,
0.09539228959637436 ,
0.092313582134532 ,
0.12512651148595044 ,
0.12772871494222438 ,
0.14675142631752813 ,
0.15187727136339257 ,
0.16612910751784676 ,
0.1423077394586466 ,
0.13468642069279124 ,
0.13616834799843786 ,
0.14425073505834957 ,
0.15501049764899955 ,
0.1775330379966426 ,
0.18359012558899263 ,
0.19723399226219396 ,
0.21075295662784183 ,
0.2345279209686616 ,
0.2788695300169701 ,
0.2520830586677718 ,
0.24226952860866824 ,
0.25150685531928285 ,
0.2091740583341915 ,
0.21192119150406452 ,
0.1817646250075997 ,
0.18903275449447587 ,
0.18990990846787048 ,
0.18820128053136687 ,
0.20140152026342917 ,
0.20111116395767442 ,
0.196945508136947 ,
0.1292597977090783 ,
0.08580051517898574 ,
0.008642681949614761 ,
0.012245615209853511 ,
0.05016079011735769 ,
-0.01726466092254908 ,
-0.04114307025572744 ,
0.027385700042438066 ,
0.07305932159612649 ,
0.09571085887505032 ,
0.08812790078723415 ,
0.12385220949793635 ,
0.17263380270799722 ,
0.24098830313264707 ,
0.2676969818352945 ,
0.29954663282030036 ,
0.31091186412129634 ,
0.30139135290610536 ,
0.3049280824361531 ,
0.2777717328327152 ,
0.2635186418121943 ,
0.2678912605628265 ,
0.2640369315964583 ,
0.24869947948620746 ,
0.2427940723589192 ,
0.23129226706573613 ,
0.19580994124526718 ,
0.15707272503947078 ,
0.09936622369959675 ,
0.053002100266046126 ,
-0.542462360901813 ,
-0.5224216595374198 ,
-0.4692519817496234 ,
-0.38518379369382477 ,
-0.31902530342627566 ,
-0.23283819511767465 ,
-0.21018429755306828 ,
-0.19286092611275896 ,
-0.19175745366421318 ,
-0.1448253950386354 ,
-0.07272566423019838 ,
-0.010771676219651916 ,
-0.021391737117671172 ,
-0.021768968331181138 ,
-0.05918830876394987 ,
-0.04658410388040496 ,
-0.08355984501265351 ,
-0.12667835739402156 ,
-0.14658790922598136 ,
-0.16579914553394548 ,
-0.178494911679085 ,
-0.18357379159772275 ,
-0.16162595560255394 ,
-0.18246115604463142 ,
-0.19106213345291312 ,
-0.18849380928129444 ,
-0.18114683416935679 ,
-0.1639632763300951 ,
-0.15633878081454045 ,
-0.15999590998994317 ,
-0.15650071298533647 ,
-0.15192224292268125 ,
-0.1275309959847809 ,
-0.09086846966309803 ,
-0.07085801507950362 ,
-0.06275295266361514 ,
-0.058402772036311945 ,
-0.068047187238226 ,
-0.0228776896466536 ,
-0.019601879622387464 ,
-0.005195402489134082 ,
-0.003988133592685572 ,
-0.0038842024336447345 ,
0.01842116210968825 ,
0.03462480885577568 ,
0.02083683627339028 ,
0.04859623060403018 ,
0.07043211492623425 ,
0.07855655441483766 ,
0.08421434498290215 ,
0.07690005499846708 ,
0.09714463326720402 ,
0.10038642073368331 ,
0.09662802040791019 ,
0.07800895753236925 ,
0.09730076467059945 ,
0.0970661190245713 ,
0.09505346425496275 ,
0.09849791811170605 ,
0.0782393172265684 ,
0.10345789544981177 ,
0.10343476452552558 ,
0.08915279193858927 ,
0.10946550873473804 ,
0.10587534571314872 ,
0.10044074130051783 ,
0.1256163471886067 ,
0.13818014269455403 ,
0.14512967091081075 ,
0.14987598016909331 ,
0.1547116739965081 ,
0.15572454743873243 ,
0.1632688824752379 ,
0.1541647898684395 ,
0.13725552123485912 ,
0.1362941108968287 ,
0.14453326224942914 ,
0.16694074560742417 ,
0.18038347408334798 ,
0.18759793419886495 ,
0.21042246490395872 ,
0.22586756648581585 ,
0.2770420634807626 ,
0.2669250039936066 ,
0.24871675192006415 ,
0.2668599103401909 ,
0.23485177047196293 ,
0.2255008889430446 ,
0.20304209428409226 ,
0.17858365301862333 ,
0.1887922788167437 ,
0.18453553750282986 ,
0.1966528797700624 ,
0.22570073222594067 ,
0.2140851549902345 ,
0.18078310428139271 ,
0.09122219437771001 ,
0.009836287542992095 ,
-0.041294924157822877 ,
0.04047507332827427 ,
-0.03108443091787305 ,
-0.0601576507181924 ,
0.014820524347396613 ,
0.06966452296015885 ,
0.1125545304260051 ,
0.09836446565596424 ,
0.12933650991665635 ,
0.1550844891254397 ,
0.2439652737218812 ,
0.2669720944573204 ,
0.3140795037655756 ,
0.3065417023657783 ,
0.29380787793362984 ,
0.3040692312095674 ,
0.2888086873106672 ,
0.2720582069498026 ,
0.25821809730688317 ,
0.2608219583302778 ,
0.24268535823716686 ,
0.24846205364615837 ,
0.22080907639050157 ,
0.2008039494084396 ,
0.15857572998904756 ,
0.11166207906098158 ,
0.07270521321819806 ,
-0.5129546646311156 ,
-0.5041092961705649 ,
-0.44549460011079856 ,
-0.39078899703387315 ,
-0.29358588340114333 ,
-0.22074317845866492 ,
-0.1998570598506106 ,
-0.17540589260005762 ,
-0.1466690062987054 ,
-0.12127837280315451 ,
-0.039807238691836944 ,
-0.0012237398164017255 ,
-0.0028122607880557426 ,
-0.014294262565058335 ,
-0.0514037234095327 ,
-0.061124568264934676 ,
-0.09044728729477419 ,
-0.14985166234412156 ,
-0.17544559403141635 ,
-0.18041417001636617 ,
-0.19026797338104434 ,
-0.17264574979847852 ,
-0.1750798148251963 ,
-0.1871601315280793 ,
-0.1807409869009547 ,
-0.1759959569394247 ,
-0.1843745226623481 ,
-0.16387899860286942 ,
-0.16080490064126396 ,
-0.16189082705094715 ,
-0.12991601694731147 ,
-0.12800041841594678 ,
-0.10838596663865174 ,
-0.08807685315091951 ,
-0.07464169486968864 ,
-0.05691336259561486 ,
-0.04193642044427681 ,
-0.0399983846435682 ,
-0.01950563290783791 ,
-0.0143355631146046 ,
-0.0030713622677058794 ,
-0.004836788286634475 ,
0.005731450108773184 ,
0.03307143404831203 ,
0.03991988636347066 ,
0.05508239790148972 ,
0.07459563027699123 ,
0.06960239513729094 ,
0.08013212946099013 ,
0.0931068768036033 ,
0.11337459571785369 ,
0.09979965643802036 ,
0.10513560409744949 ,
0.1074543810322488 ,
0.09283023489767595 ,
0.11034199338565442 ,
0.11090886230715946 ,
0.11194622389737718 ,
0.11161625182363522 ,
0.10023864119891013 ,
0.10967068519945389 ,
0.10072705200206344 ,
0.11015757482720179 ,
0.11392711841398617 ,
0.11708951320985128 ,
0.10149170318472933 ,
0.11917259365255017 ,
0.1372164412275929 ,
0.15118905448921527 ,
0.16072300891802538 ,
0.15915919576864146 ,
0.1754842546445225 ,
0.18205414242092427 ,
0.1837530958163871 ,
0.1602844110261613 ,
0.1300792783786079 ,
0.12664608310736558 ,
0.15863202156876732 ,
0.16839398450976367 ,
0.17491662042500522 ,
0.20877408916373136 ,
0.2189208920799099 ,
0.2656833169906537 ,
0.26123172077409446 ,
0.26675226042873207 ,
0.2798055314576225 ,
0.24727726267426647 ,
0.22297716124324546 ,
0.22851511138827274 ,
0.21656245797997287 ,
0.158417283587444 ,
0.20100564429526246 ,
0.18718800405658864 ,
0.21919812385216508 ,
0.23592933567359564 ,
0.21954516890664283 ,
0.1838566841497587 ,
0.06304999864367444 ,
-0.04192471916066298 ,
-0.047909464271039315 ,
-0.007692075967620671 ,
-0.018872957518311806 ,
-8.341178247759373E-4 ,
0.0014934988288298756 ,
0.08329305350410149 ,
0.11297112425029338 ,
0.1264115554744039 ,
0.1595752069081811 ,
0.22285569048553366 ,
0.25528641476804464 ,
0.3014261805352357 ,
0.30543994343442354 ,
0.29006027727123 ,
0.29892653681443043 ,
0.276276787505145 ,
0.2736337891393411 ,
0.25130669582080184 ,
0.26163088559996234 ,
0.24437994274035496 ,
0.2384969385548622 ,
0.22317017751140916 ,
0.1902249216979789 ,
0.1510147584860112 ,
0.11502063230121656 ,
0.09131725128222146 ,
-0.5241034520243164 ,
-0.4843369504974271 ,
-0.42878322651803424 ,
-0.38193956032106374 ,
-0.3184947210639639 ,
-0.25065798138716117 ,
-0.237552552402856 ,
-0.18085044314206192 ,
-0.14023230314145144 ,
-0.05508559622668868 ,
-0.0017151241626991443 ,
-0.006929515179346701 ,
-0.017171630049435394 ,
-0.026901249426206142 ,
-0.06042234773697358 ,
-0.0838813446684642 ,
-0.11624532338916804 ,
-0.14852753453710882 ,
-0.16622161194073404 ,
-0.18181441194381082 ,
-0.18490965913758356 ,
-0.17892898237415472 ,
-0.20082789440705157 ,
-0.18436099715328574 ,
-0.18667009936774243 ,
-0.17785747853950257 ,
-0.17662476315418457 ,
-0.16906547172809056 ,
-0.13741033200370478 ,
-0.14558627594511742 ,
-0.12569703109239927 ,
-0.1106878001359678 ,
-0.10418135523782568 ,
-0.0880681867071027 ,
-0.0685153596514203 ,
-0.06531840285479462 ,
-0.04209153363835749 ,
-0.038243248209231195 ,
-0.010943533775028214 ,
-0.010237375356850653 ,
-0.007625894165100955 ,
0.009817337415383043 ,
0.02599500832479973 ,
0.028771667702143344 ,
0.05078993439252666 ,
0.05910274496081025 ,
0.08142428289137227 ,
0.06910230313286769 ,
0.08530235277742682 ,
0.09038310454640686 ,
0.09214393748289085 ,
0.1160373720817488 ,
0.11941174684315647 ,
0.1078494658511322 ,
0.10423270650953209 ,
0.1290669133471687 ,
0.11953292836772766 ,
0.12366368851056542 ,
0.11986761070256946 ,
0.10673485033668562 ,
0.1156330569273295 ,
0.12285714228405653 ,
0.12154073794448017 ,
0.11425952944887541 ,
0.1329313835018615 ,
0.12749002086404615 ,
0.13567616200153265 ,
0.14229078664053307 ,
0.16538991758835908 ,
0.18027467158536337 ,
0.17748357837906192 ,
0.1810613188404181 ,
0.19660652392106032 ,
0.1726401319371133 ,
0.17009938083209497 ,
0.16075630797592638 ,
0.13991664119018243 ,
0.15897982444765896 ,
0.17785640184646345 ,
0.17896297368903819 ,
0.2029288219300336 ,
0.21398462665517726 ,
0.24661626935881364 ,
0.2405486889974061 ,
0.25814706105639335 ,
0.2773706055091198 ,
0.26735225463836654 ,
0.24408157433575395 ,
0.23390814900145562 ,
0.22806172029932165 ,
0.16623356309294374 ,
0.16244636449099864 ,
0.19806772255448551 ,
0.19469975010293683 ,
0.24531428206758032 ,
0.25906706870375873 ,
0.23479102173530614 ,
0.1880748655191944 ,
0.05880829551768546 ,
-0.05269246257743726 ,
-0.06401320757773421 ,
0.005516077298446442 ,
0.005604153896436537 ,
-0.01602807280118529 ,
0.03220372463353599 ,
0.10420958613406511 ,
0.13840788358884543 ,
0.1594600962913862 ,
0.20450361487423435 ,
0.23865756169982388 ,
0.26682894630840875 ,
0.267879072198841 ,
0.27799623877509766 ,
0.28439145506913105 ,
0.2826593227980423 ,
0.26889146526087737 ,
0.24963504267261688 ,
0.2629521107643689 ,
0.24388043492687728 ,
0.23905310906681726 ,
0.2071173438253487 ,
0.17788730312277506 ,
0.1327789139278392 ,
0.10323187651182686 ,
0.0810345287773242 ,
-0.5149592891689568 ,
-0.4500352623958989 ,
-0.41103124424840437 ,
-0.3602098509880142 ,
-0.3122425996279064 ,
-0.25872645540981065 ,
-0.2023681846882639 ,
-0.15414063679215553 ,
-0.09574919535909512 ,
-0.02782709330058808 ,
0.008424810222523171 ,
-0.005494383146277038 ,
-0.0419202881689093 ,
-0.07185604629908404 ,
-0.08637149281459883 ,
-0.1088036911689993 ,
-0.12135428695545031 ,
-0.14543479375516805 ,
-0.19494784732252068 ,
-0.15492086376633546 ,
-0.16824805259761966 ,
-0.19696500635606212 ,
-0.18721718366960394 ,
-0.17198737893500454 ,
-0.17710387890656015 ,
-0.1891560945279389 ,
-0.1699720759695587 ,
-0.15861405420833558 ,
-0.13917114749875548 ,
-0.12945295248147426 ,
-0.11511043337344007 ,
-0.11217891040040928 ,
-0.09213499994961005 ,
-0.08526822837893 ,
-0.066438253340655 ,
-0.04220895272445002 ,
-0.029654704280666744 ,
-0.02265148162241637 ,
-0.014691192459408087 ,
-0.004010126371854605 ,
0.006467600462680689 ,
0.01947385457895856 ,
0.037005124561454106 ,
0.030071231201132198 ,
0.0655060231020661 ,
0.0708334401889168 ,
0.08276550008746575 ,
0.09158906537406197 ,
0.09824301638824873 ,
0.09967840927434446 ,
0.10941294477514518 ,
0.12143565564643433 ,
0.12392996576639648 ,
0.11596609945713743 ,
0.12163684651572215 ,
0.1245955140606021 ,
0.13269325801588416 ,
0.1293366632087094 ,
0.11892118663432338 ,
0.10865442321508956 ,
0.12319459396453158 ,
0.11622215948557668 ,
0.12741985874692163 ,
0.13557887955179226 ,
0.1531662220565857 ,
0.15401901080338187 ,
0.14650499584359233 ,
0.1459213768004528 ,
0.19550894212156333 ,
0.18675201653389462 ,
0.18554133601155076 ,
0.18387612878604775 ,
0.19350758502749288 ,
0.20137345146074298 ,
0.19292541580802458 ,
0.1786069679030729 ,
0.16424943510340023 ,
0.15828556730367244 ,
0.18505056376461698 ,
0.18453536617463967 ,
0.18676672131060534 ,
0.21647250439531673 ,
0.23066282089309748 ,
0.22918629823574804 ,
0.2515483090740494 ,
0.2876185076642422 ,
0.2772276053431009 ,
0.2659888620346025 ,
0.2540775172596589 ,
0.238593107016155 ,
0.1800673978868465 ,
0.13045459847377178 ,
0.1806697096203022 ,
0.18006433351553502 ,
0.20054052494235713 ,
0.24984585714760987 ,
0.27706143518686605 ,
0.2353495401502393 ,
0.1564790680771308 ,
-0.006904392630016576 ,
-0.06728997536414244 ,
-0.048048363694045304 ,
-0.03794852239375279 ,
0.005199050630659452 ,
0.00571578617759444 ,
0.10213458297344369 ,
0.13727827002593262 ,
0.17808783515719218 ,
0.22277231609139186 ,
0.24616739067067578 ,
0.2656595848550405 ,
0.2876481375362221 ,
0.2900899949036528 ,
0.25382440602170664 ,
0.2724609233204477 ,
0.26511301757844985 ,
0.2561814214712628 ,
0.2596777193033868 ,
0.229223095081253 ,
0.22090731250211493 ,
0.1896072405242788 ,
0.1588197714075339 ,
0.13699886954821378 ,
0.09826519799355504 ,
0.06543191321523184 ,
-0.476713764847862 ,
-0.42420066981618426 ,
-0.3485443433174099 ,
-0.2932641350185937 ,
-0.24900755850920572 ,
-0.21287300012673924 ,
-0.19569904309437752 ,
-0.13050744356068636 ,
-0.07821897238612491 ,
-0.013843479574954742 ,
-0.005017416751818438 ,
-0.021919460854645023 ,
-0.04680727696965509 ,
-0.06708359778588963 ,
-0.11227416554709041 ,
-0.11896182905224711 ,
-0.13420888313264234 ,
-0.16998877836595544 ,
-0.17920061879889054 ,
-0.17076393892632874 ,
-0.18911898178259817 ,
-0.20023424967813258 ,
-0.18764615874889706 ,
-0.17809452383227792 ,
-0.16402213218025724 ,
-0.1660846451164147 ,
-0.17221309512256938 ,
-0.14039750566351772 ,
-0.13690733249099973 ,
-0.12103021393618096 ,
-0.10780207749390402 ,
-0.0996164834433132 ,
-0.08297265796386477 ,
-0.08196190143816051 ,
-0.044781538479466754 ,
-0.04666720357328824 ,
-0.033605128056079736 ,
7.161598255867041E-5 ,
-0.022830521652632774 ,
0.0014561516525407603 ,
0.013025625325403523 ,
0.030114513467611848 ,
0.04977752432863525 ,
0.04019790666620149 ,
0.06718595456227427 ,
0.0819144726574893 ,
0.09054980819080172 ,
0.09204213213567725 ,
0.10610188104853036 ,
0.09996530377538426 ,
0.12351959701032256 ,
0.11809423101396754 ,
0.124927465146488 ,
0.1162619452255722 ,
0.13092852861706383 ,
0.14796801004702398 ,
0.15613907207516198 ,
0.14050875364188353 ,
0.1388837002246518 ,
0.11775574499341313 ,
0.11734756163677651 ,
0.1463139870249196 ,
0.11135219062178137 ,
0.13207323235619872 ,
0.14691821588556198 ,
0.14242351216060456 ,
0.15440703670896305 ,
0.1637778519137011 ,
0.16781007259160585 ,
0.1812083340965529 ,
0.17916716370469155 ,
0.18810724043419136 ,
0.20260648678305904 ,
0.19684499782342396 ,
0.18815251932694144 ,
0.18706032972248876 ,
0.191351824632554 ,
0.1602195414331366 ,
0.14801276979560446 ,
0.1692255370194029 ,
0.16888806018736496 ,
0.20848621331492379 ,
0.2133228657526836 ,
0.23507698432006957 ,
0.24217035077496618 ,
0.2793516696258506 ,
0.29583978752763074 ,
0.2727317315833711 ,
0.2843509998381671 ,
0.24583626483993937 ,
0.2289922468387448 ,
0.1430691213122794 ,
0.13207761188707268 ,
0.18181768093813372 ,
0.1826489516707268 ,
0.22373871539868845 ,
0.27122325324930024 ,
0.26323925571041085 ,
0.22374168667679684 ,
0.03557739489190542 ,
-0.05788160898746397 ,
-0.08903697992860199 ,
-0.09868891223463838 ,
-0.04500946200684053 ,
-0.0012941467547344931 ,
0.06755338030024577 ,
0.1250536928384796 ,
0.17127619522168908 ,
0.18767288738374582 ,
0.23195197891607688 ,
0.2666489536340763 ,
0.28712303349314405 ,
0.25683156225854376 ,
0.2586349137408221 ,
0.2721999167899654 ,
0.2677585785983204 ,
0.25258946130201665 ,
0.2512294617418856 ,
0.2411323279741301 ,
0.19876312220293413 ,
0.1745984344761749 ,
0.17062989836766268 ,
0.12700896686771374 ,
0.10105770708649597 ,
0.05528249240937111 ,
-0.4575415895099642 ,
-0.40414272247762795 ,
-0.33703859602231745 ,
-0.26946819461172256 ,
-0.22103476013226467 ,
-0.20660601756491714 ,
-0.17673237318761792 ,
-0.11731163667007602 ,
-0.04165843161731936 ,
-0.00778973796392729 ,
-0.0031993051387059768 ,
0.0021931029125286106 ,
-0.04629081057698242 ,
-0.06485169214448633 ,
-0.10251013337269771 ,
-0.12849635849858138 ,
-0.1471452091451444 ,
-0.15745540034885142 ,
-0.17448817985374737 ,
-0.16963398948896052 ,
-0.20988739986946953 ,
-0.2198558460308273 ,
-0.18067129915354374 ,
-0.179504813206884 ,
-0.18265305335010162 ,
-0.1697746884392783 ,
-0.1751734899202994 ,
-0.15157073807333643 ,
-0.1425221198847636 ,
-0.11753178466389247 ,
-0.12218024710544939 ,
-0.09999161011989532 ,
-0.08758289390201413 ,
-0.08182856759140889 ,
-0.04975139949574814 ,
-0.04415024243293031 ,
-0.021410682974233652 ,
-0.00868798807009763 ,
-0.005100579456612575 ,
-0.007332331465029762 ,
0.01802944523922534 ,
0.03090186024968311 ,
0.045508599156922735 ,
0.04203689780236464 ,
0.04976016717757559 ,
0.0770749773972721 ,
0.07924211739078246 ,
0.08432567699945281 ,
0.10806394419497845 ,
0.11197483561382149 ,
0.1232528728184149 ,
0.1281816782658367 ,
0.11373851085491671 ,
0.12331176013211498 ,
0.13616981463462774 ,
0.13859297960092243 ,
0.128415561582931 ,
0.13812912458746918 ,
0.132265606001568 ,
0.1391283959061962 ,
0.14215327841808068 ,
0.14650642769796252 ,
0.15610284534607455 ,
0.1528761239208497 ,
0.1474279788374142 ,
0.13629774647042547 ,
0.15850805861900596 ,
0.14565082064099089 ,
0.1584069581434494 ,
0.16988451239508617 ,
0.1953353759413753 ,
0.20103563183660633 ,
0.20546737596248166 ,
0.19596779146425025 ,
0.19381753890506226 ,
0.1916758496731767 ,
0.18981961025235622 ,
0.17692573331012856 ,
0.12742557744218802 ,
0.15953066986640013 ,
0.16875436548501366 ,
0.18535763155557422 ,
0.19706658670214428 ,
0.20895028229121526 ,
0.2163761296042701 ,
0.26004537615688134 ,
0.28498113506552003 ,
0.30785532444392505 ,
0.30485396532374204 ,
0.3001986248246537 ,
0.2745511067058157 ,
0.2028280751657902 ,
0.16126866318116784 ,
0.16148063108856314 ,
0.1812825571720108 ,
0.18676642483400308 ,
0.3037256353382606 ,
0.28740526954387874 ,
0.2684237772200183 ,
0.19139529252282889 ,
0.010448795262604005 ,
-0.10320931732824223 ,
-0.09897812460890393 ,
-0.08978962035990112 ,
-0.01369250765846225 ,
0.07056759751859948 ,
0.1498007649131477 ,
0.16619396000087167 ,
0.19972680147282518 ,
0.22279023967844547 ,
0.24517581497259577 ,
0.26027244728281584 ,
0.23112042007817618 ,
0.23845813835076746 ,
0.24768268820175632 ,
0.2525636712575302 ,
0.2308497070350452 ,
0.23236227164805656 ,
0.2275091585884853 ,
0.2075161869105232 ,
0.16413061715071764 ,
0.13129075009718272 ,
0.11593619925667575 ,
0.08269575646976668 ,
0.03136317318628562 ,
-0.4168452229314397 ,
-0.37835798722221964 ,
-0.3052304720259068 ,
-0.2444034089826598 ,
-0.21996053122331244 ,
-0.18973652820264497 ,
-0.16241465171059816 ,
-0.07715357548765017 ,
-0.02566934892429862 ,
-0.019919784618893988 ,
-0.016015806020377943 ,
-0.014007551750486291 ,
-0.07249047090955008 ,
-0.07089500269888416 ,
-0.11914063349317516 ,
-0.1525139910094721 ,
-0.15956225103835808 ,
-0.16889563883970748 ,
-0.17446072210285113 ,
-0.17382058004661693 ,
-0.19894274696326358 ,
-0.18660380377136276 ,
-0.1999872066696537 ,
-0.17218292068867952 ,
-0.16924197685451114 ,
-0.159942497382837 ,
-0.1641819669269905 ,
-0.1547854378408995 ,
-0.13384038904470363 ,
-0.10848025716605747 ,
-0.1018417641465198 ,
-0.09868654876548766 ,
-0.08811669150787405 ,
-0.07227262935047474 ,
-0.06359059691562441 ,
-0.03548721908632346 ,
-0.01966648919528058 ,
-0.014447602722287178 ,
-0.005268902933741604 ,
0.01959197344864272 ,
0.029948299585612737 ,
0.034439917568935496 ,
0.03660525495612332 ,
0.04475206565230683 ,
0.06265639644440768 ,
0.06113284598567825 ,
0.07327753128532655 ,
0.07328461654014051 ,
0.09651514416397311 ,
0.09954542060839366 ,
0.10632864283474408 ,
0.1302941728625101 ,
0.1303813075990825 ,
0.13533151108976604 ,
0.12602652305413908 ,
0.14596479165173748 ,
0.13994815105191172 ,
0.13672229375077127 ,
0.12633096210341455 ,
0.14189864896690108 ,
0.1479460087053629 ,
0.12586228627373863 ,
0.1475353277946827 ,
0.16774780668328693 ,
0.15308450019595476 ,
0.14100109938097594 ,
0.14984810763443934 ,
0.1453467925378218 ,
0.17648021570360606 ,
0.16048165882294363 ,
0.1666817181194964 ,
0.19850713937781694 ,
0.17941943992193443 ,
0.1819947183921935 ,
0.18746441448250284 ,
0.1711386319426802 ,
0.18580675138399422 ,
0.1938233194411143 ,
0.16652633905227732 ,
0.11983606550100806 ,
0.17950805900337496 ,
0.17065668709313947 ,
0.1741238544844141 ,
0.20590005563674535 ,
0.20809360779711106 ,
0.23125846128576383 ,
0.2658954976532224 ,
0.2892552652333428 ,
0.2882663917827158 ,
0.28453853263909057 ,
0.2722986470302228 ,
0.23259251782120027 ,
0.1775929721538282 ,
0.17365763067624046 ,
0.19503898901658145 ,
0.16240880750854902 ,
0.2123144724819115 ,
0.2800394395488508 ,
0.2841930055293462 ,
0.25405493641646226 ,
0.08658171381654667 ,
-0.049616448583570616 ,
-0.09403455752724876 ,
-0.10687248131883559 ,
-0.059519564213929343 ,
0.0056416385176188966 ,
0.10726276253136036 ,
0.1560170180255529 ,
0.1955207965439003 ,
0.21051980272477988 ,
0.2005165473136689 ,
0.24007520776667235 ,
0.19323374631423162 ,
0.21154242197374767 ,
0.22692998852227958 ,
0.20403189453315013 ,
0.1965854918118592 ,
0.19094387277577463 ,
0.18675831271891824 ,
0.1583416131755767 ,
0.10980989516855177 ,
0.10676241568990563 ,
0.06604170110356333 ,
0.03716917141526377 ,
0.005972304754205127 ,
-0.38991216188476296 ,
-0.3337588594557483 ,
-0.26825951079746735 ,
-0.2346295572030431 ,
-0.21841881574060867 ,
-0.17570716408971312 ,
-0.14127494535490828 ,
-0.0636575086174474 ,
-0.030253431697163935 ,
-0.024494529304916135 ,
-0.024226321205143453 ,
-0.04831751042085797 ,
-0.08314364141849939 ,
-0.09573090369592113 ,
-0.11689498559059935 ,
-0.13386760675774784 ,
-0.15645064238526618 ,
-0.15711829128158505 ,
-0.1770671101361948 ,
-0.18969843430270167 ,
-0.1891411990276725 ,
-0.19462773266587002 ,
-0.18768160536826645 ,
-0.17138953350393987 ,
-0.167358518907057 ,
-0.1600988873125045 ,
-0.15990228636845577 ,
-0.14149278208105764 ,
-0.12955547805624668 ,
-0.12472425009524701 ,
-0.10332431103347972 ,
-0.10402841918695249 ,
-0.09002675441712482 ,
-0.0703816016012867 ,
-0.07367487517211402 ,
-0.05546275230852937 ,
-0.032113405878358536 ,
-0.01868943584337379 ,
-0.013612145618049909 ,
0.005520790741163961 ,
0.02057392090085597 ,
0.03249005087946211 ,
0.03699367572524681 ,
0.048877170090135036 ,
0.05707749590554656 ,
0.055597738055919166 ,
0.04028727401391563 ,
0.05984795526947939 ,
0.07327770769977981 ,
0.0877721195583393 ,
0.09566261212647742 ,
0.11889771763188994 ,
0.11986888722359768 ,
0.12671485575483388 ,
0.13236393475107588 ,
0.11142280201072041 ,
0.11721179309500362 ,
0.14238646677202693 ,
0.15186585861958957 ,
0.1548397043232811 ,
0.14437547408972173 ,
0.15763970174959818 ,
0.16693755079625006 ,
0.1734799931787645 ,
0.1540133652634762 ,
0.14730921128913732 ,
0.1536950935936754 ,
0.1429185035784022 ,
0.16530892746478587 ,
0.16214066968376173 ,
0.16876337959548493 ,
0.17719686085662756 ,
0.16943817323164911 ,
0.16803020295967708 ,
0.16710623483044962 ,
0.17579213613783462 ,
0.18650904346137454 ,
0.1889372655119867 ,
0.18036582780018245 ,
0.14293662631523474 ,
0.15157126993229075 ,
0.17223528909174668 ,
0.17340266503901863 ,
0.18853511368416898 ,
0.1957081358312585 ,
0.1985932092413794 ,
0.24315316670711334 ,
0.27838517809925784 ,
0.2736956459348396 ,
0.27840063275068455 ,
0.2836845232296092 ,
0.25046294967607435 ,
0.17616301375672272 ,
0.1816182320111574 ,
0.20387027364780114 ,
0.22213685050759197 ,
0.19594522340810422 ,
0.22272341460054562 ,
0.2795050425103121 ,
0.27969966617109815 ,
0.19652292528796578 ,
0.00783659248862656 ,
-0.059847137897762415 ,
-0.11852219457911073 ,
-0.10129024412999338 ,
-0.024199314768877267 ,
0.059251818760287345 ,
0.13395171142190682 ,
0.20262901872802913 ,
0.23226813486533088 ,
0.17859120350692176 ,
0.190049313941906 ,
0.16778729254447128 ,
0.17821344478943568 ,
0.2199643665541518 ,
0.20820111641404077 ,
0.21527888839736692 ,
0.22314843971593107 ,
0.203669521405545 ,
0.19188473466928385 ,
0.17473217221456333 ,
0.1422270788096714 ,
0.11708459638767243 ,
0.09816112389867282 ,
0.08289113440330992 ,
-0.3722680041525098 ,
-0.3141241120967275 ,
-0.2551675810212537 ,
-0.2303784319667279 ,
-0.21233681982715916 ,
-0.17859616438828624 ,
-0.1270719380644171 ,
-0.06499043321393289 ,
-0.03285245566980183 ,
-0.0273595558885813 ,
-0.04839139808557191 ,
-0.05227492509537568 ,
-0.07449294657427924 ,
-0.1092407380928665 ,
-0.13127592220216316 ,
-0.1234497357716256 ,
-0.14630138698687745 ,
-0.17506827409563747 ,
-0.17351236766469663 ,
-0.18622586877200797 ,
-0.1952029047579948 ,
-0.17708004432535274 ,
-0.17425387233089923 ,
-0.18828708830009 ,
-0.16967032265980903 ,
-0.1590971134135638 ,
-0.15662576341281653 ,
-0.1517457395898374 ,
-0.13918073840346656 ,
-0.13128148214724555 ,
-0.10872541228143151 ,
-0.107221994202642 ,
-0.09561540718755979 ,
-0.08489580354224724 ,
-0.07559931022116984 ,
-0.05712001692773505 ,
-0.027646693063531957 ,
-0.034193073673914776 ,
-0.014778293665943742 ,
-0.009838208167309404 ,
-0.0039127338164189895 ,
0.013518156372001489 ,
0.023070019806538555 ,
0.03575982247495857 ,
0.04458098199318572 ,
0.04148976437627572 ,
0.03403479058436654 ,
0.06088817938956126 ,
0.04884795618386717 ,
0.045747266812458665 ,
0.09214307222354368 ,
0.10455873947212269 ,
0.1122930468630794 ,
0.10311572649800127 ,
0.10638301256919636 ,
0.10789390099057505 ,
0.11508986630743112 ,
0.13410243244661002 ,
0.14837722222714222 ,
0.14313388956838113 ,
0.14217152762301066 ,
0.14795292528643278 ,
0.1562316864526293 ,
0.16541866829258567 ,
0.16481175182676833 ,
0.1470629320693192 ,
0.13596288789020083 ,
0.14282670063459446 ,
0.15177917788564066 ,
0.15523624270325853 ,
0.15727344246974373 ,
0.15188041938714747 ,
0.1497535637599221 ,
0.16058925713202965 ,
0.1583540656562077 ,
0.1652412903485848 ,
0.18199764676821562 ,
0.18090511238770568 ,
0.1847072911451218 ,
0.1705640292281888 ,
0.14227623754397667 ,
0.16944208907195452 ,
0.16484116636925616 ,
0.1784261129855763 ,
0.1688647604055205 ,
0.19824320147666413 ,
0.2243793294169189 ,
0.25374719741491236 ,
0.25974863704394413 ,
0.2934993255201444 ,
0.29355625489741216 ,
0.26413013140641717 ,
0.21756707715295465 ,
0.16330432202499873 ,
0.19941810004685318 ,
0.2547318718739384 ,
0.22512576554197794 ,
0.22997006300394235 ,
0.26227574651225005 ,
0.2805607083468313 ,
0.27448153617206683 ,
0.0801488376012468 ,
-0.05123135643044041 ,
-0.11201268938326131 ,
-0.1119032402671073 ,
-0.047847034419869094 ,
0.004389808592640043 ,
0.12265629224945962 ,
0.1924006092610635 ,
0.22478806942602964 ,
0.18539515948446145 ,
0.2167428123698168 ,
0.23247884562929927 ,
0.24921940393445058 ,
0.26664957153386015 ,
0.2699538802953625 ,
0.29178497649225954 ,
0.29011445198201485 ,
0.2865675406468924 ,
0.2554564283720204 ,
0.2499358085751685 ,
0.21631427781511325 ,
0.18385373598535104 ,
0.15387417169020923 ,
0.12360585577149358 ,
-0.3390870190988068 ,
-0.2878481309288704 ,
-0.24586154754919165 ,
-0.2161873512752078 ,
-0.23943825001992367 ,
-0.1541532712136818 ,
-0.13632897784453477 ,
-0.043500989545249114 ,
-0.037048487036211664 ,
-0.046537449212743776 ,
-0.04680352553324918 ,
-0.07136674072588473 ,
-0.09980379924475563 ,
-0.12487318608807885 ,
-0.12693004642290756 ,
-0.12936209777393126 ,
-0.15153211593469595 ,
-0.1645191098314806 ,
-0.18443434218028704 ,
-0.2013530311432407 ,
-0.2040969147384631 ,
-0.1770979677274402 ,
-0.18662468944567373 ,
-0.185807263426303 ,
-0.17691066133199496 ,
-0.17048330368370118 ,
-0.1594596798991601 ,
-0.15931514369073208 ,
-0.15072951804119372 ,
-0.11627404642221562 ,
-0.1271642631312151 ,
-0.10865134232110751 ,
-0.10529649652092954 ,
-0.10480193424585948 ,
-0.08270498625852996 ,
-0.07220576900187281 ,
-0.04839170978554019 ,
-0.05303201294381632 ,
-0.03339659626564373 ,
-0.023155518977623024 ,
-0.014856640510113817 ,
-0.009682327782650768 ,
0.009299854985867273 ,
0.007471495704540199 ,
0.021073716785546925 ,
0.0250312949517556 ,
0.04144189355413663 ,
0.050575155649010384 ,
0.0454496717010775 ,
0.07126248907166821 ,
0.08080971208761956 ,
0.09964050788786105 ,
0.11165002831986726 ,
0.0996298824310401 ,
0.09565850860711 ,
0.1112701854861683 ,
0.11904256181675021 ,
0.13965571740803628 ,
0.14594813023587383 ,
0.1449670329647541 ,
0.14759448649098927 ,
0.14409773291606254 ,
0.13433231054122807 ,
0.15312318390847035 ,
0.1504765126016907 ,
0.1338043145555755 ,
0.12600583282255484 ,
0.14151825707578836 ,
0.1549751821694667 ,
0.14860440994810897 ,
0.1390031881245548 ,
0.13812521988299276 ,
0.15009283533334128 ,
0.16003402831326474 ,
0.16183662682541655 ,
0.1640367987825494 ,
0.17035974216051664 ,
0.16380678577653673 ,
0.17661244766706585 ,
0.17639649968812016 ,
0.15082371821470691 ,
0.15601526711635716 ,
0.1568809853322768 ,
0.15569796647694983 ,
0.14347198514348064 ,
0.1739706364102272 ,
0.19133030761290787 ,
0.21531496120625854 ,
0.2288417972429332 ,
0.2728056235308592 ,
0.28555288763307235 ,
0.28028866795096913 ,
0.2476206644176489 ,
0.1781451633846371 ,
0.1907426289216898 ,
0.2517671052202183 ,
0.2502640806943787 ,
0.25254304970990954 ,
0.2522421531071722 ,
0.2763805418812567 ,
0.2862906413127922 ,
0.1792103680524208 ,
-0.023212504338400608 ,
-0.13255272527898504 ,
-0.13303143563204944 ,
-0.09237605633758944 ,
-0.019057808295553702 ,
0.08392378115657734 ,
0.15020062872901657 ,
0.21486040046946103 ,
0.2173790919258628 ,
0.23991140023803992 ,
0.24543340617458115 ,
0.2695355558857922 ,
0.2662665683193251 ,
0.27958181736412024 ,
0.29505335633140806 ,
0.2917088308445347 ,
0.2918017386145722 ,
0.26011443364262277 ,
0.2570363794153203 ,
0.21803301105523515 ,
0.19549707367333286 ,
0.17023551912989243 ,
0.15141347736327598 ,
-0.32261443589511396 ,
-0.28687974971492747 ,
-0.23300467056279206 ,
-0.21472821679555815 ,
-0.21070054088694729 ,
-0.15982877116986666 ,
-0.08391816663423735 ,
-0.05925697854919565 ,
-0.04835719160842661 ,
-0.04124732782212276 ,
-0.05052809573081418 ,
-0.0770047282455884 ,
-0.088407667593347 ,
-0.1354309032733682 ,
-0.16580693804782187 ,
-0.1764398315403285 ,
-0.17284545430132997 ,
-0.17298980313491302 ,
-0.1781711359756848 ,
-0.1924841827622688 ,
-0.20015599047914778 ,
-0.1947814982552169 ,
-0.19400030006217883 ,
-0.19299480958191756 ,
-0.17753122730098597 ,
-0.16166023882201053 ,
-0.14623376332246107 ,
-0.14105737846109823 ,
-0.14429651548131872 ,
-0.12431519369905708 ,
-0.1275328034498494 ,
-0.1233453619715732 ,
-0.12027122000889956 ,
-0.11192022954419245 ,
-0.08714854215283974 ,
-0.08279441093220341 ,
-0.06934402049975974 ,
-0.05572112008265384 ,
-0.0564664129116359 ,
-0.03382866475393376 ,
-0.029439739742376014 ,
-0.014765597869200064 ,
-0.004914114383761992 ,
-0.002180544357309633 ,
0.009001102758408597 ,
0.019052574247431675 ,
0.04022718581481777 ,
0.04827031545541938 ,
0.059160810613550274 ,
0.075643456202937 ,
0.08897838088176713 ,
0.08470895721920546 ,
0.08749179664229068 ,
0.07585320001519791 ,
0.08888388395663505 ,
0.11095964466155872 ,
0.11398290623838447 ,
0.14065958371562148 ,
0.1302635772152192 ,
0.13284329486649304 ,
0.14503039688372898 ,
0.1344627146406221 ,
0.1381336029511917 ,
0.1450297777021422 ,
0.15098835907800867 ,
0.14823719621067566 ,
0.13270361694967403 ,
0.12360279347409697 ,
0.1470331727097245 ,
0.13254657207004394 ,
0.12988472814995222 ,
0.12801023244663057 ,
0.1474732726620429 ,
0.14946813925775682 ,
0.14516353617397637 ,
0.12369362753800439 ,
0.14109612806648886 ,
0.15763451415729268 ,
0.18381974286933955 ,
0.16361341934101514 ,
0.16593055371972365 ,
0.16603213094261726 ,
0.15466884554393395 ,
0.1425417406554762 ,
0.1609482193414838 ,
0.15686734931940577 ,
0.1852700032399846 ,
0.19132664111874675 ,
0.20346009933549647 ,
0.25180255808959345 ,
0.27516047662112597 ,
0.2899254612882673 ,
0.28395562463718343 ,
0.24081516480184734 ,
0.2010707745101692 ,
0.2527219362850998 ,
0.26955570292160513 ,
0.25819113283310846 ,
0.26170250661406175 ,
0.28798698543285206 ,
0.31480052795072205 ,
0.2947014741093924 ,
0.04460746166883034 ,
-0.0966544315332592 ,
-0.13067765296399897 ,
-0.10664796569026741 ,
-0.02896539444015095 ,
0.028053193187818348 ,
0.13308103675248661 ,
0.19139617785056634 ,
0.20369528535842035 ,
0.20997451198198008 ,
0.2431455909726563 ,
0.2532434219597526 ,
0.2678815421168206 ,
0.28142604175897895 ,
0.2902825500866645 ,
0.29942968098828404 ,
0.3044472372826752 ,
0.2868806958450642 ,
0.24486096667057478 ,
0.2425414231958707 ,
0.20180535632751462 ,
0.17501384508599455 ,
0.15288180265704532 ,
-0.32947597982870064 ,
-0.27923747346240363 ,
-0.261573136218953 ,
-0.21408047484989634 ,
-0.1999364854822023 ,
-0.17026745347426045 ,
-0.10464609001237407 ,
-0.05133716447921355 ,
-0.05705855327366127 ,
-0.042058826511238434 ,
-0.06267872040950911 ,
-0.085930138332529 ,
-0.1102301113868897 ,
-0.137076701909915 ,
-0.1693757970916664 ,
-0.16280789255013228 ,
-0.17718351585025888 ,
-0.21305059624716421 ,
-0.1723523819195395 ,
-0.180404001347292 ,
-0.2038098761868774 ,
-0.20138361031322832 ,
-0.19380659630625552 ,
-0.17357852741054552 ,
-0.18002948369469302 ,
-0.17354064549060172 ,
-0.15825001500461844 ,
-0.16465991590085782 ,
-0.13571359223841273 ,
-0.13861951275251694 ,
-0.13134929211101687 ,
-0.13036932430122128 ,
-0.11339342598578006 ,
-0.09536511586505436 ,
-0.09110728545401614 ,
-0.09222742452138455 ,
-0.08363592599646241 ,
-0.06397266152295866 ,
-0.06113063443599198 ,
-0.038144823409318906 ,
-0.03223000476947424 ,
-0.026261178028832877 ,
-0.02565586096209327 ,
3.4021506297088333E-4 ,
0.014991689374763362 ,
-0.005316272159637037 ,
0.018985145166307338 ,
0.032255247807630005 ,
0.040753705967656484 ,
0.06910008093702569 ,
0.06714465572062756 ,
0.09533871693329887 ,
0.09379581212116928 ,
0.08788575865909942 ,
0.09151706281374095 ,
0.10473421937780225 ,
0.11929875667640044 ,
0.13270704536706313 ,
0.122066724875875 ,
0.13484613670759826 ,
0.1379045077885228 ,
0.14272157452280998 ,
0.15855630155533862 ,
0.13568580988018808 ,
0.14156418911479718 ,
0.15269230430007363 ,
0.13482569406346745 ,
0.12414258838113934 ,
0.12228926153010056 ,
0.13497345773714764 ,
0.12417227614177329 ,
0.12489313823320214 ,
0.13280169218838545 ,
0.14956965092532226 ,
0.143990843594911 ,
0.12601590758411862 ,
0.12471787658245659 ,
0.1322354648207359 ,
0.1479035342272197 ,
0.15960891910929398 ,
0.17423935621196718 ,
0.18350789105130794 ,
0.16709265659599554 ,
0.16515438063040283 ,
0.19446004603040956 ,
0.16712650658352607 ,
0.18089980412747253 ,
0.1911667925583284 ,
0.20013064961811855 ,
0.22607876091326 ,
0.2675628526204482 ,
0.2822182359929129 ,
0.2816656370788668 ,
0.26333563318698644 ,
0.25498549596961445 ,
0.25469785749512464 ,
0.2697479106955711 ,
0.2642767756976458 ,
0.268183666583618 ,
0.2821907915962559 ,
0.29243179864186625 ,
0.3060380461805638 ,
0.1935713139548167 ,
-0.013263688903605186 ,
-0.09809186555830207 ,
-0.08656407572778574 ,
-0.04820355514991925 ,
-0.0125655342048131 ,
0.11062468862676383 ,
0.15932526298243527 ,
0.18021451691685147 ,
0.20053873226370728 ,
0.2193401913490164 ,
0.24936245952914576 ,
0.283356996785844 ,
0.2900858125082946 ,
0.29358951836775576 ,
0.2887699026687964 ,
0.30661188521871563 ,
0.29636213712192366 ,
0.26258128022332505 ,
0.23110596140457068 ,
0.20342068360725168 ,
0.1833571402604452 ,
0.1434209107480181 ,
-0.31896484149435755 ,
-0.2709608788493868 ,
-0.22233498637952237 ,
-0.22049450873208162 ,
-0.18751619108313428 ,
-0.1601463115749224 ,
-0.0805365271570474 ,
-0.054252524231958976 ,
-0.059718050388908483 ,
-0.05685491556063388 ,
-0.06658372422085784 ,
-0.09523182118834861 ,
-0.10375282715133938 ,
-0.13227918941814226 ,
-0.1747499665775093 ,
-0.1638601857034967 ,
-0.16054830176273122 ,
-0.19791365992968502 ,
-0.18228938498930597 ,
-0.18769919346531028 ,
-0.20590233608452002 ,
-0.19616982458714183 ,
-0.18810875701529223 ,
-0.17999615445761413 ,
-0.18184223898564705 ,
-0.1834836143531936 ,
-0.166473737224489 ,
-0.1583212498307609 ,
-0.14535030451890207 ,
-0.15398920522118353 ,
-0.13771943318893987 ,
-0.1267444875636332 ,
-0.12037497870984348 ,
-0.10457155865381329 ,
-0.09578041990698916 ,
-0.09706170797205449 ,
-0.10721174008293677 ,
-0.061485343473397513 ,
-0.06504383545634318 ,
-0.056002008633589395 ,
-0.04701737713251741 ,
-0.039218226922341115 ,
-0.02837066963109469 ,
-0.025871885776894366 ,
-2.758476007489463E-4 ,
-0.008336339442568508 ,
0.0036972356864516387 ,
0.013769080245306431 ,
0.03103266334897048 ,
0.041089250963181945 ,
0.048483743324629014 ,
0.07566067068215143 ,
0.08765549730710465 ,
0.1006588499460438 ,
0.08780805758747567 ,
0.10496498484925032 ,
0.11434948772993325 ,
0.137255972065761 ,
0.12467827087508532 ,
0.1259371627726762 ,
0.12485746875854042 ,
0.12402576432497703 ,
0.12245216811289483 ,
0.13651469766363866 ,
0.12001227892877286 ,
0.12483152038333523 ,
0.11946846940397748 ,
0.11929100677640836 ,
0.1116735955448418 ,
0.11240111882030901 ,
0.107004717688997 ,
0.12487316265879189 ,
0.11991341105399023 ,
0.12565295363104712 ,
0.11204726151080358 ,
0.11508777358079614 ,
0.12390512276193533 ,
0.14934028627234797 ,
0.16337335770412098 ,
0.163837561277561 ,
0.1606224542446546 ,
0.1500283064115857 ,
0.17865381539338376 ,
0.1826769052852414 ,
0.19519745162291607 ,
0.17382140846122557 ,
0.18145030392356126 ,
0.17613999754327608 ,
0.1753321577445276 ,
0.218541486962821 ,
0.2568225677036878 ,
0.2690224798761006 ,
0.28556479155287473 ,
0.252682454788473 ,
0.2579120414579724 ,
0.24362496911481896 ,
0.24942923536901085 ,
0.2649771881379053 ,
0.2639307856855348 ,
0.2759354593820262 ,
0.2771499989668951 ,
0.3198538455848316 ,
0.28205015228284686 ,
0.062155355374655386 ,
-0.04591084346748253 ,
-0.08449415051399095 ,
-0.04776962281545116 ,
0.0034830704442014304 ,
0.07364417248108762 ,
0.137565625704145 ,
0.18035751688860097 ,
0.21818064089316458 ,
0.2516132984529662 ,
0.2522979235671585 ,
0.2662658126166605 ,
0.3009768065298706 ,
0.3152883611630599 ,
0.3319550597440488 ,
0.3233723236408869 ,
0.30567715027287323 ,
0.2734223719834466 ,
0.26443798824052617 ,
0.21673487498049476 ,
0.18415422137082854 ,
0.1585059661112952 ,
-0.3031866599321117 ,
-0.28496809036025916 ,
-0.2503313159342913 ,
-0.23195572790650162 ,
-0.17133279908752405 ,
-0.15682570771995663 ,
-0.08615944871891762 ,
-0.07278600935975577 ,
-0.06300950267455024 ,
-0.07373847499639513 ,
-0.05924899012018964 ,
-0.08152385405281781 ,
-0.10505090465457795 ,
-0.13052979494480738 ,
-0.17415774061081174 ,
-0.15796583902634842 ,
-0.1682017737705112 ,
-0.18544204366831313 ,
-0.17242196949966132 ,
-0.17607309819191386 ,
-0.1898134498718861 ,
-0.18623885730916184 ,
-0.18952929710372918 ,
-0.17045885872040345 ,
-0.1645343762222954 ,
-0.15409664936706513 ,
-0.16152774256101732 ,
-0.15532130105734676 ,
-0.15139753180487414 ,
-0.14711811829056298 ,
-0.13547552970655197 ,
-0.13401002660547112 ,
-0.12207722378425923 ,
-0.10760146769870449 ,
-0.09997421887617808 ,
-0.12279270488342187 ,
-0.10684683262753059 ,
-0.09811469685037111 ,
-0.08462371556615667 ,
-0.06775877588190882 ,
-0.05915555852271259 ,
-0.05288737502175633 ,
-0.03821547470625841 ,
-0.04232061617297278 ,
-0.039728310928237476 ,
-0.0229787531066743 ,
-6.579628987987141E-4 ,
-0.00435137414182396 ,
0.013568373395462019 ,
0.029975586434879076 ,
0.0346575874859697 ,
0.05249368694054379 ,
0.06583544999775304 ,
0.08203863492049845 ,
0.10082298999683992 ,
0.1053118521773484 ,
0.11031501758613305 ,
0.11831373549335222 ,
0.11493581409359599 ,
0.12209666191066726 ,
0.11919819092124506 ,
0.11717686666538174 ,
0.10855409609909239 ,
0.12256293958737252 ,
0.12347497890670356 ,
0.10865659135825034 ,
0.09839109729674178 ,
0.11254284228234435 ,
0.10330531748327054 ,
0.0920485363858905 ,
0.11393063972815076 ,
0.10166908306479794 ,
0.10438790060911718 ,
0.12881834941829018 ,
0.13183538288295904 ,
0.13989268845404423 ,
0.1450495005980964 ,
0.13144592391965182 ,
0.12365629783262977 ,
0.13316041108913357 ,
0.1299089689441183 ,
0.1288601033336112 ,
0.15103710414805172 ,
0.1481312548822311 ,
0.1752813402566511 ,
0.180512614016482 ,
0.18187083154073924 ,
0.161381654825286 ,
0.17298479818692686 ,
0.20834313407915223 ,
0.2525972526329227 ,
0.26044247719872216 ,
0.27178479904296704 ,
0.2783076239446737 ,
0.26474095311070167 ,
0.2671209616467832 ,
0.25481584736754176 ,
0.2646653301318456 ,
0.2504399963427115 ,
0.2614664239927783 ,
0.2748917528992539 ,
0.3051786461132566 ,
0.2946918598207551 ,
0.20642915640111076 ,
0.022766055016592346 ,
-0.04037834120082445 ,
-0.03879181356937428 ,
-0.011830999396041153 ,
0.06478389678086954 ,
0.12386922531305655 ,
0.17738881375353088 ,
0.21390628292428243 ,
0.24874404367469544 ,
0.2580483728343309 ,
0.2860021834205917 ,
0.30303668067167433 ,
0.3216080769238182 ,
0.3192251012417024 ,
0.324692032117551 ,
0.3096843385679613 ,
0.2726218117367037 ,
0.2649424106461848 ,
0.22672051009010757 ,
0.18172247590882812 ,
0.17198436786564425 ,
-0.3067549584958124 ,
-0.28542070649868234 ,
-0.2651227381224305 ,
-0.2110786673852872 ,
-0.16479279505756897 ,
-0.11253216991895343 ,
-0.07493645540236443 ,
-0.08750378102921141 ,
-0.07499724700134502 ,
-0.07805059051964142 ,
-0.07110501626686272 ,
-0.08213981224412747 ,
-0.11349483653467485 ,
-0.12511682158625126 ,
-0.15366601986415984 ,
-0.14912930472910585 ,
-0.15154089069936433 ,
-0.16667605810156816 ,
-0.18373094788214284 ,
-0.1809181339823016 ,
-0.19333251412047858 ,
-0.196465854741937 ,
-0.18873269347292648 ,
-0.17114710744040135 ,
-0.17606780453381737 ,
-0.16693922757129398 ,
-0.1511877589327194 ,
-0.15579128897233707 ,
-0.1441341050692495 ,
-0.14842250553991787 ,
-0.12248924560299235 ,
-0.1430455699366836 ,
-0.13888674807113788 ,
-0.1307118881879129 ,
-0.10884969875807049 ,
-0.12462936547619796 ,
-0.11636016479978284 ,
-0.09783078171596571 ,
-0.10440189598112815 ,
-0.0853604530997858 ,
-0.06319780241828787 ,
-0.047197253015889395 ,
-0.05258737183948381 ,
-0.04740315698134312 ,
-0.04012686152225753 ,
-0.02275105088987206 ,
1.0530685237475357E-4 ,
-0.0019624588934110676 ,
0.012196354256710062 ,
0.030077064203453463 ,
0.020852708223716987 ,
0.035642350920635724 ,
0.06811045889094491 ,
0.07976907100763309 ,
0.08958322101944838 ,
0.09201529873507275 ,
0.10022161443443312 ,
0.10926712846201192 ,
0.10551040046144367 ,
0.11676693223019008 ,
0.11208610411519071 ,
0.10718488798916581 ,
0.10402357317488764 ,
0.09460987035658408 ,
0.08884413773470756 ,
0.07905733033533224 ,
0.10031118574787135 ,
0.0995796820823428 ,
0.08206307656156253 ,
0.08834484183982394 ,
0.11039684169825148 ,
0.11866840973304882 ,
0.11542166680425348 ,
0.12479380801005424 ,
0.13384786033308793 ,
0.12096713058365538 ,
0.11454547192085252 ,
0.12031719545207897 ,
0.11823226682901333 ,
0.11435538742533036 ,
0.10906272336543876 ,
0.13576115443704873 ,
0.13756285049994155 ,
0.1496792747154274 ,
0.16114685953017693 ,
0.1779225159432425 ,
0.1625980076960185 ,
0.18320876759086763 ,
0.18428160766555973 ,
0.19035048226907553 ,
0.21919720209254612 ,
0.23478905220497132 ,
0.228898178185851 ,
0.26653512723014866 ,
0.2698086707535619 ,
0.2569765758295566 ,
0.2530714501909631 ,
0.26144559343554435 ,
0.2567724251014425 ,
0.25027057195682273 ,
0.27041260630269215 ,
0.31008216458833043 ,
0.31181089380772486 ,
0.2828108911729331 ,
0.07895466887557534 ,
-0.029169337987653587 ,
-0.06018733740572446 ,
-0.04907289098891382 ,
0.04306284011584183 ,
0.08699575598889864 ,
0.15972447790548533 ,
0.18737011634639938 ,
0.2231711063296516 ,
0.2552385853654758 ,
0.28298300559123774 ,
0.3028953786234833 ,
0.32020088056063967 ,
0.32423504002256853 ,
0.32764121516823386 ,
0.3139572909720701 ,
0.2787742375910804 ,
0.25214777813528216 ,
0.22363474959521007 ,
0.2030342198580044 ,
0.1778943464530499 ,
-0.30322750882799787 ,
-0.2747072917572901 ,
-0.23729150025810075 ,
-0.1915698615366983 ,
-0.16865784377044604 ,
-0.1323251495922758 ,
-0.09493958938889452 ,
-0.06415330473109815 ,
-0.07845558136345898 ,
-0.07034099300683949 ,
-0.0728224393869003 ,
-0.08846366992519894 ,
-0.10931724355463046 ,
-0.13197057303703286 ,
-0.14159115793601185 ,
-0.1437466247198106 ,
-0.15659085878388374 ,
-0.1743358160598104 ,
-0.1956868714562287 ,
-0.19947152665493018 ,
-0.19765622829449492 ,
-0.19710815315444175 ,
-0.19387625900106292 ,
-0.17175775213175454 ,
-0.16992310431039054 ,
-0.16482029284191702 ,
-0.14000961386010136 ,
-0.1528332480795972 ,
-0.15062381557918836 ,
-0.1581171851524592 ,
-0.13373131803748062 ,
-0.13895902418247952 ,
-0.1361344096695879 ,
-0.13323192522514204 ,
-0.1269884960676645 ,
-0.1161293447375864 ,
-0.1056289849295815 ,
-0.10412039652388849 ,
-0.08982791618139008 ,
-0.08477533330081999 ,
-0.07568264071383557 ,
-0.0732970142194197 ,
-0.05861952448278873 ,
-0.030399248511373878 ,
-0.027835064751075778 ,
-0.023976757933931947 ,
-0.015106852810956695 ,
0.007468775895794089 ,
0.017845153480760545 ,
0.028249852195654124 ,
0.010043077335792683 ,
0.03383416492476432 ,
0.06415165388939326 ,
0.07438317905700043 ,
0.07551567994113473 ,
0.08367717469527014 ,
0.09344931119491862 ,
0.10234506682491307 ,
0.11034318759419848 ,
0.1086342048721779 ,
0.09635573168230693 ,
0.08951664164582784 ,
0.10682214336982332 ,
0.0788779012533537 ,
0.07833614899070651 ,
0.0826308079212621 ,
0.09503016048518731 ,
0.0938300873754816 ,
0.08004288873569787 ,
0.08856859728904931 ,
0.09825468858104991 ,
0.10147080427510868 ,
0.09789389458099107 ,
0.10675346937635832 ,
0.09612677469074982 ,
0.11239611567870489 ,
0.11690472969654542 ,
0.12139359876777522 ,
0.12609539182524554 ,
0.1308158104178314 ,
0.12053695150905042 ,
0.13079409514180174 ,
0.13440568342419812 ,
0.12571690688584725 ,
0.13611178391504464 ,
0.16180632895446212 ,
0.17374998849344203 ,
0.19027119987324947 ,
0.18969707960048987 ,
0.19949448084797677 ,
0.1941022219040328 ,
0.21481313504422123 ,
0.22568553721863177 ,
0.24771838360092618 ,
0.2424280607654653 ,
0.2532333091483089 ,
0.25018254140743373 ,
0.25933504351413855 ,
0.26640797250646986 ,
0.2686180338415565 ,
0.2753465649402957 ,
0.3048603146657794 ,
0.31813648707787046 ,
0.3434818108513119 ,
0.21685210042315323 ,
0.02288437913656688 ,
-0.05413474356782416 ,
-0.034298795497822276 ,
0.022826746021589517 ,
0.07082462637260772 ,
0.13074916978898504 ,
0.17553604357273483 ,
0.2128178687895385 ,
0.25556321704670737 ,
0.27279912734564515 ,
0.29099651913766994 ,
0.29994658880251013 ,
0.30746988311897533 ,
0.32406949918443845 ,
0.3107324634375235 ,
0.294531503161713 ,
0.2576524336646885 ,
0.22343695358225923 ,
0.20341252834143497 ,
0.18697329907157428 ,
-0.3229303649443188 ,
-0.272346341338193 ,
-0.24315925465083424 ,
-0.19342440354364593 ,
-0.16660552431617662 ,
-0.1285211205517332 ,
-0.06819332969050346 ,
-0.053974768733582645 ,
-0.060710027654701515 ,
-0.05912369094655695 ,
-0.07150704914785744 ,
-0.09189074002977005 ,
-0.11214666170538456 ,
-0.13042549731141873 ,
-0.1269282290918045 ,
-0.14562242491393862 ,
-0.17231621031305255 ,
-0.18412962865435284 ,
-0.1953643043404214 ,
-0.19944955795888558 ,
-0.2012249642129178 ,
-0.1761418268340224 ,
-0.19423180834727044 ,
-0.16445203282677978 ,
-0.1584854025351764 ,
-0.15481370794339733 ,
-0.15502951183616176 ,
-0.1529021027115246 ,
-0.1473781098680944 ,
-0.15982414068162287 ,
-0.14286245527478458 ,
-0.1496492921755206 ,
-0.12929032465123402 ,
-0.12712725471274733 ,
-0.11618363080429417 ,
-0.1056738996675145 ,
-0.12007222132568773 ,
-0.10216223511068112 ,
-0.07849123365309807 ,
-0.08833382678629009 ,
-0.07301801772772121 ,
-0.06676494824782675 ,
-0.05133604967432415 ,
-0.037601800361581894 ,
-0.03282659898297724 ,
-0.007080843261073944 ,
0.008343672795516954 ,
0.011778032504493163 ,
0.018876301881327384 ,
0.027033847418327817 ,
0.030888487147860744 ,
0.045943064916988186 ,
0.062090345237322264 ,
0.06495348996778139 ,
0.07355255354954837 ,
0.09139359883417064 ,
0.09972929667207131 ,
0.0953610576234869 ,
0.11260993108911355 ,
0.10445126302055074 ,
0.09755216586663606 ,
0.0914968001662868 ,
0.08243509601539023 ,
0.06021161633438532 ,
0.0737371321459589 ,
0.08363893300415404 ,
0.08252847414039965 ,
0.08811412786715112 ,
0.08711901635892594 ,
0.0842313306010658 ,
0.08929884478074535 ,
0.08723741138120789 ,
0.08403512338076047 ,
0.09098765448641566 ,
0.11366909084856769 ,
0.1157952076717742 ,
0.11585227198411707 ,
0.1254093867351117 ,
0.1340956982006687 ,
0.1371184775883839 ,
0.14346375481261775 ,
0.13888777541469766 ,
0.13078552253435338 ,
0.14585787225097313 ,
0.15327950992809258 ,
0.16483586922916638 ,
0.18738015995105706 ,
0.1919020402895638 ,
0.20439557658941876 ,
0.18890741332374184 ,
0.18520083555548794 ,
0.20370298865566094 ,
0.21836438211350317 ,
0.22476654853669203 ,
0.23192644757564707 ,
0.23449006355918034 ,
0.23910431573982793 ,
0.24104369145204385 ,
0.26314532838966037 ,
0.273875138910362 ,
0.27330998202381207 ,
0.29509858818346246 ,
0.31595424359998975 ,
0.3411425395130685 ,
0.31713580457008317 ,
0.11140390759282831 ,
-0.016419915271924712 ,
-0.04692531109017822 ,
-0.0020573138381473344 ,
0.04533259735567213 ,
0.12007110695857276 ,
0.18066323555375224 ,
0.19000875426996527 ,
0.2341873683674267 ,
0.2594564879285785 ,
0.28797214706526175 ,
0.3039491518145048 ,
0.3118784434140695 ,
0.3276167961920924 ,
0.31907793648192 ,
0.303647978801115 ,
0.27301517056746105 ,
0.23196740046426184 ,
0.2063232394913948 ,
0.18743888749169407 ,
-0.32708433360388367 ,
-0.2589854411537845 ,
-0.2294162170524403 ,
-0.19141785511645704 ,
-0.1501646005440636 ,
-0.091290581801442 ,
-0.052447239398982326 ,
-0.04164546561550542 ,
-0.0230159223267129 ,
-0.0441158285922475 ,
-0.06263999082854976 ,
-0.06855550140050498 ,
-0.1053728863104128 ,
-0.14313290453293215 ,
-0.1489417627428764 ,
-0.14665800521506128 ,
-0.17744186763436942 ,
-0.18466625889552213 ,
-0.18522373750679683 ,
-0.19631545086053215 ,
-0.19172435237067736 ,
-0.17829019399447232 ,
-0.1686925422343169 ,
-0.16231689506664881 ,
-0.1585307988242628 ,
-0.15217193930314665 ,
-0.15898593587491905 ,
-0.15495023156534093 ,
-0.16705730412349318 ,
-0.14636632645189962 ,
-0.14888409538197556 ,
-0.1507744470252601 ,
-0.13685647607193285 ,
-0.1398731909387224 ,
-0.12006665629471613 ,
-0.09794933355530333 ,
-0.11844300278532072 ,
-0.09475274790468091 ,
-0.08527438024504419 ,
-0.07488434155855106 ,
-0.07317571639786224 ,
-0.04386848839194313 ,
-0.050782946187311606 ,
-0.043712823950947444 ,
-0.01258619592747301 ,
0.006198619418805951 ,
0.005684790413477914 ,
0.02303240521344363 ,
0.03283870696769564 ,
0.04684968040795556 ,
0.04165234141182983 ,
0.05055019378814718 ,
0.04739945089647435 ,
0.06404988854566829 ,
0.07509985547496878 ,
0.08600447535575273 ,
0.0977815634575877 ,
0.1007280440676781 ,
0.11773836979579455 ,
0.1105221473626814 ,
0.08238396637283518 ,
0.0785666119483327 ,
0.07975429555494484 ,
0.06593210887155598 ,
0.0740987307082247 ,
0.09370759255560157 ,
0.09811782692004356 ,
0.08596986445915034 ,
0.09530921794767022 ,
0.10436243948093749 ,
0.09057019923874543 ,
0.08696837980900574 ,
0.0981208669747311 ,
0.07805846951424777 ,
0.10154892675638016 ,
0.12884989970815264 ,
0.11743495859357755 ,
0.1298611189179506 ,
0.1436854727259692 ,
0.13660814427623091 ,
0.13708030772548607 ,
0.14716604039040193 ,
0.16339788762532803 ,
0.1606799349669229 ,
0.14836398643685367 ,
0.16114287347189993 ,
0.18304468509077232 ,
0.1817099960863776 ,
0.19574416467585276 ,
0.197349665441382 ,
0.19928838461942688 ,
0.21833192891289027 ,
0.20745642955628402 ,
0.22196144417544944 ,
0.22228774503849036 ,
0.21385445864819336 ,
0.2313722127658246 ,
0.25235832269719516 ,
0.2451223506463952 ,
0.25206726618169845 ,
0.26932225170716306 ,
0.3009244932921575 ,
0.3220420041225794 ,
0.32280749529451264 ,
0.32790193652386 ,
0.21062392173146338 ,
0.02344625022220237 ,
-0.059401068720104255 ,
-0.04509752737165096 ,
0.004283976229255249 ,
0.05391743065532245 ,
0.17332869574287874 ,
0.19964040822665874 ,
0.2452152448820309 ,
0.25739339192902194 ,
0.2887760824730031 ,
0.2988656118477562 ,
0.3072923334686804 ,
0.3268791322958265 ,
0.310928226234357 ,
0.3031560891498005 ,
0.2703156888937806 ,
0.24490613599399702 ,
0.22795392839330741 ,
0.19853184183252998 ,
-0.29237581047584993 ,
-0.24431172287150676 ,
-0.20792071249737656 ,
-0.1765539556143101 ,
-0.15275835840095692 ,
-0.07206550489211228 ,
-0.03877744616816531 ,
-0.0479795860720042 ,
-0.028772164655832433 ,
-0.04227983458333895 ,
-0.04976939327720081 ,
-0.06791005282728363 ,
-0.09567936684332046 ,
-0.135197977068008 ,
-0.14415897982393283 ,
-0.15209682311977107 ,
-0.15531456142691719 ,
-0.176204752868731 ,
-0.19550571403854106 ,
-0.1937485171617913 ,
-0.1910512451146929 ,
-0.16273859110136035 ,
-0.16797088766952867 ,
-0.16308739727582733 ,
-0.15884798170534664 ,
-0.15699000496590898 ,
-0.16027157976333006 ,
-0.1744963701356365 ,
-0.1493886426243951 ,
-0.14788824821460744 ,
-0.1443450211290742 ,
-0.14736947072262607 ,
-0.15096129974099526 ,
-0.1443420211351495 ,
-0.1294179862726792 ,
-0.10292503830964794 ,
-0.1076480566653033 ,
-0.0779597333512172 ,
-0.07695104550241405 ,
-0.0717045737964086 ,
-0.06908615885589098 ,
-0.05326199936295195 ,
-0.04932582993270773 ,
-0.02460573127598764 ,
8.248894079491143E-4 ,
0.009844325789090336 ,
0.009754364362534407 ,
0.03238236000000527 ,
0.04594107337410114 ,
0.05024479708642926 ,
0.04503381021166919 ,
0.04843633344286913 ,
0.06019799628330935 ,
0.06251825939817779 ,
0.07998379201270067 ,
0.07943759612729817 ,
0.09301528226290423 ,
0.09722117136733466 ,
0.09885871452800565 ,
0.10450586136676387 ,
0.08464484372341718 ,
0.08448449888639631 ,
0.08716832401514307 ,
0.07523687716342276 ,
0.0744731429483303 ,
0.08937880074355031 ,
0.09775120794321035 ,
0.0917775768111817 ,
0.09802846060525217 ,
0.0975145561401306 ,
0.10100862083657591 ,
0.08521482529960622 ,
0.09278679064624162 ,
0.1030833814562695 ,
0.11169983670070827 ,
0.1380750442833516 ,
0.1258643631056494 ,
0.1294586583236541 ,
0.14161287022715008 ,
0.13544014868136678 ,
0.15439385383809512 ,
0.1630676748464136 ,
0.18461981410305317 ,
0.17187894537236603 ,
0.16373142006228947 ,
0.17621091420924206 ,
0.1808240568546685 ,
0.1851734525729305 ,
0.17987749507848683 ,
0.20291291559536462 ,
0.21436054574539654 ,
0.22391824361829904 ,
0.21784246212367603 ,
0.21627109585940235 ,
0.2304939991491659 ,
0.22554762852688415 ,
0.2437324735087128 ,
0.23421041863519032 ,
0.2396324484309172 ,
0.23518149708878466 ,
0.2662039442140724 ,
0.30665506311114693 ,
0.33029026331203826 ,
0.3385586864159551 ,
0.3371024984577649 ,
0.3040782422358489 ,
0.11845995456743674 ,
-0.01836129420399285 ,
-0.09020150097933777 ,
-0.029410374804786532 ,
0.01682230152779679 ,
0.11576469062814554 ,
0.19875514164097963 ,
0.21536859657794322 ,
0.2573547308854419 ,
0.28251263051427145 ,
0.3017861290899953 ,
0.30206539243042313 ,
0.3203428462472012 ,
0.3075888678665093 ,
0.29740129595932985 ,
0.27769357444970444 ,
0.2564629786852246 ,
0.223261136716274 ,
0.19520536625177348 ,
-0.2760541594168375 ,
-0.2531350067626798 ,
-0.21938636416138244 ,
-0.14718883049453962 ,
-0.1101292137261431 ,
-0.073735437111341 ,
-0.006606865566737841 ,
-0.03699223081884889 ,
-0.030630829718726937 ,
-0.0563224167134142 ,
-0.0668916216487187 ,
-0.07406843478799657 ,
-0.08386296435661117 ,
-0.12373555301694766 ,
-0.14151525325551717 ,
-0.17196667366865087 ,
-0.17903027181691694 ,
-0.175290910035244 ,
-0.1938011295621384 ,
-0.19481798057730204 ,
-0.17923103452468425 ,
-0.17064732891579731 ,
-0.1701594448354305 ,
-0.16716039698827984 ,
-0.1631884000829823 ,
-0.16027210186667895 ,
-0.153479890171773 ,
-0.15121255651229115 ,
-0.13537618674070528 ,
-0.13111869200381265 ,
-0.1419428462732385 ,
-0.1385214959034985 ,
-0.13269171052344075 ,
-0.10628942605061098 ,
-0.11725923867272736 ,
-0.09562212611592236 ,
-0.0843070588621797 ,
-0.07304671832516929 ,
-0.05701168300912518 ,
-0.05692861059198251 ,
-0.03213868851714663 ,
-0.04239906386548009 ,
-0.013495027960916839 ,
-0.020435229132234944 ,
0.01621753103926349 ,
0.025211820097806426 ,
0.016892065809384404 ,
0.029018638974354083 ,
0.025280546759603673 ,
0.05069166060306618 ,
0.04324062778615245 ,
0.05542156870404291 ,
0.05997782639176008 ,
0.06765995693177207 ,
0.0761080771052326 ,
0.09180356486163488 ,
0.10372361976937072 ,
0.10543249210374661 ,
0.10941499570989244 ,
0.100487540501072 ,
0.1122360117336455 ,
0.10876308369624643 ,
0.10305712681860635 ,
0.1094038836512149 ,
0.10761656668276764 ,
0.10215185291052153 ,
0.10178772622664967 ,
0.10995505100021197 ,
0.11319632463919982 ,
0.08760680319573733 ,
0.11016461366233798 ,
0.10827212664945096 ,
0.10324273010565321 ,
0.11367800284656715 ,
0.12829967554375132 ,
0.14048763672315379 ,
0.14265036355365912 ,
0.13811563582747577 ,
0.13623040854268664 ,
0.14488176820144805 ,
0.17096072367578385 ,
0.17812178780461474 ,
0.16422188166654728 ,
0.17992909267706136 ,
0.15487370033920977 ,
0.168149884915197 ,
0.18310774398428564 ,
0.1759766083365728 ,
0.18292137349724236 ,
0.20228088381156073 ,
0.2035803077676006 ,
0.2047276489795421 ,
0.21469634993550052 ,
0.2323777211657681 ,
0.24279770403724077 ,
0.23578618171764626 ,
0.2418189671013657 ,
0.21935218406216134 ,
0.24815321550139885 ,
0.24746670582138885 ,
0.26109774697638 ,
0.2921740436957549 ,
0.32929364364539965 ,
0.33255556910616885 ,
0.3466918482662862 ,
0.30326075620964965 ,
0.17218651469011775 ,
0.040567495789231744 ,
-0.11050124597656091 ,
-0.058431779035791886 ,
-0.02921413211916818 ,
0.04924353264399245 ,
0.16747093951593478 ,
0.21162793284640263 ,
0.2534512807329132 ,
0.269530253821049 ,
0.2870696157252456 ,
0.30557469041317636 ,
0.3064473773397097 ,
0.32876079629479055 ,
0.3069393130423823 ,
0.2954821387725318 ,
0.2759434893110866 ,
0.24600820519956462 ,
0.22274115087745516 ,
-0.2607680019177 ,
-0.24292087622035252 ,
-0.21550400430085925 ,
-0.13850528317289235 ,
-0.08929217252626492 ,
-0.06479692071504484 ,
-0.0324881779421094 ,
-0.0030700056562882883 ,
-0.010716012495949612 ,
-0.0203647225354458 ,
-0.04080244704381897 ,
-0.06231689214253716 ,
-0.07550316232111937 ,
-0.13065487519999147 ,
-0.15052625911544776 ,
-0.1729900477144406 ,
-0.16997656925924948 ,
-0.18855023898703943 ,
-0.19056713754452625 ,
-0.18077365379544585 ,
-0.18498741003804858 ,
-0.15620290008132764 ,
-0.16989983254098046 ,
-0.15615699151187123 ,
-0.16102712354325843 ,
-0.1628532535304733 ,
-0.15281087352545353 ,
-0.15031709385807723 ,
-0.15803692764218358 ,
-0.13003271566826025 ,
-0.13426135024512798 ,
-0.1441582597390676 ,
-0.12957377444360274 ,
-0.10853490165840551 ,
-0.09932015546783546 ,
-0.09981674638361293 ,
-0.08438043912412241 ,
-0.07656865383728484 ,
-0.05358550303805032 ,
-0.03270454673620948 ,
-0.022288114960718364 ,
-0.031188988468551893 ,
0.0016798817767472718 ,
0.019285432513058254 ,
0.02305610284705084 ,
0.01631092350752028 ,
0.054808262492290094 ,
0.04011862758059337 ,
0.06029236840913155 ,
0.04828060825135616 ,
0.055446141393654225 ,
0.057496814423826814 ,
0.07110629162200355 ,
0.08474273099269214 ,
0.08517409285015043 ,
0.09239689320974454 ,
0.10819149935659456 ,
0.11268322210221882 ,
0.11524806136206867 ,
0.11993187379896153 ,
0.12382931980691003 ,
0.1245190058819029 ,
0.11805303710300274 ,
0.11119416054261833 ,
0.11487110407694534 ,
0.12241891250867176 ,
0.11311247674514813 ,
0.11683858897914201 ,
0.12015494756682055 ,
0.1029559553844882 ,
0.10607774567110095 ,
0.09969458850586987 ,
0.10871386708204389 ,
0.1087417770360718 ,
0.1300333107057967 ,
0.12337641211791261 ,
0.14551991505232942 ,
0.12391332519416531 ,
0.12227174206695934 ,
0.15406980010349303 ,
0.16983854197241355 ,
0.14979301836556458 ,
0.16843981434711774 ,
0.16347456728807563 ,
0.15543080641711549 ,
0.1628854482162172 ,
0.16745125159563223 ,
0.17922437231551624 ,
0.18577798259418377 ,
0.18671864161607565 ,
0.1945326871071148 ,
0.19587798418058766 ,
0.21024200798128456 ,
0.212975336517072 ,
0.22708737735567142 ,
0.23504372192775402 ,
0.23194235847028477 ,
0.2091966582601119 ,
0.24211818566623 ,
0.25171923078246683 ,
0.26404178929202043 ,
0.2838313411258428 ,
0.30899618638162923 ,
0.32203241921803943 ,
0.35922813006054916 ,
0.3351078460189521 ,
0.2606989654977046 ,
0.05410452052896214 ,
-0.03367290012308155 ,
-0.10758326349202363 ,
-0.04384430073156237 ,
0.002110186320054719 ,
0.1185692771456675 ,
0.21334124614716982 ,
0.257824218244713 ,
0.27026561044131886 ,
0.2946280703314074 ,
0.3066939203917023 ,
0.3007294447413786 ,
0.3367556354081509 ,
0.3100844975339957 ,
0.27955517816129377 ,
0.26515615951346133 ,
0.24740259774397877 ,
0.22722843355959688 ,
-0.26788502178228796 ,
-0.22788923776514688 ,
-0.1975799497967973 ,
-0.15367480303229597 ,
-0.07578677545723794 ,
-0.056728821355238934 ,
-0.033563248011189706 ,
-0.048504550700391336 ,
-0.03607546231302622 ,
-0.02720289775713819 ,
-0.03474287786146302 ,
-0.06469391706669325 ,
-0.06392679779188687 ,
-0.09879758200067179 ,
-0.16104447660813198 ,
-0.15309614003931998 ,
-0.16568408938094403 ,
-0.18439437278798854 ,
-0.19056789819059528 ,
-0.19257018467032394 ,
-0.17597598819512916 ,
-0.16090580366062568 ,
-0.1696480293519544 ,
-0.16133342826712432 ,
-0.15336793359656076 ,
-0.1401916812595173 ,
-0.13082787830332265 ,
-0.12587383854453238 ,
-0.12846682008924082 ,
-0.10902299824961459 ,
-0.1263132724516438 ,
-0.13153041168410196 ,
-0.10796721863240222 ,
-0.09355156664479736 ,
-0.07568531585446847 ,
-0.07393740343489918 ,
-0.06909226487015219 ,
-0.06413725797328718 ,
-0.03464850568396505 ,
-0.008982575382870839 ,
-0.012214478446370802 ,
-0.014943340597907473 ,
0.011465613858117507 ,
0.005848623634494343 ,
0.03591094916676585 ,
0.05162957671913471 ,
0.05261978599019834 ,
0.04870295885536979 ,
0.052969211984583264 ,
0.06806362709042924 ,
0.0680605150742698 ,
0.0663425782364544 ,
0.08148042719659065 ,
0.08836037001431174 ,
0.11354561388078077 ,
0.10508291891767985 ,
0.11382992231161004 ,
0.12333208135278728 ,
0.13738429083370185 ,
0.12971501415410558 ,
0.13434242537510555 ,
0.1290499572702607 ,
0.1288731767141702 ,
0.1359411177738883 ,
0.14054197862020623 ,
0.13609146634759883 ,
0.13057526273295228 ,
0.13417949659481898 ,
0.14955060921073626 ,
0.1186548493919587 ,
0.11825442555867238 ,
0.11507279416327476 ,
0.12395536351970238 ,
0.13665094354081642 ,
0.1519318780515102 ,
0.13716216297660866 ,
0.1357720147078536 ,
0.13758792220987004 ,
0.15003456455764108 ,
0.15475694184948097 ,
0.16545225725292134 ,
0.17331284697656546 ,
0.17002750456168225 ,
0.1828637414119194 ,
0.1919199027118217 ,
0.1801171293634769 ,
0.1843291231239237 ,
0.18145223243745778 ,
0.18445232821294777 ,
0.19579670516687908 ,
0.21035787307870912 ,
0.20876671708508676 ,
0.2254621314243968 ,
0.21960825183178545 ,
0.22865673312992385 ,
0.23481511482853773 ,
0.24646253594141243 ,
0.22239249717954046 ,
0.23586095177643096 ,
0.24273846107362257 ,
0.25064664544907145 ,
0.2842254579918882 ,
0.3236606255916809 ,
0.3449873678355017 ,
0.36116407046602783 ,
0.3734869719246487 ,
0.3172032062125677 ,
0.10708377296259036 ,
0.014599298569034969 ,
-0.08091560935175662 ,
-0.06576384466474977 ,
-0.02423423982400197 ,
0.09913289311658707 ,
0.19615595190064966 ,
0.24351946747071151 ,
0.2588728268220935 ,
